|--- image0-0 ---|.jpg
[165  32 241  69 100 127 225  88  91 170 117  88  82  17 221 188  88 220 102  42 137 118 233  18  15 158  65  52 211 235  86 164]
[246 113 118 237 237  90 255 232 169 190 247  43  74 126  31  95 250 213 255 226  76 243 235 200 247 250 199 183 103 191 118 215]
[ 93 122 127 229 100  10 235  88 109 232 247 238 219  75 149 114 126 236 126 238 137 243 237 200 214 249 163 132 111 171  99 177]
[ 62  54 254 247 251  95  95 248  55 238 247 175 127 255 143 181 255 255 255 166 237 243 251 254 255 255 101 179 231 254  78 247]
[250  61 252 116 205  94 212  39 227 179 174  24  42  57  69 187 169 246 249 129 124 107 211 234 251 251 213  55 195 124 222  10]
[100 122 180 114 169 237  17 138 170 191 168  45 166 243  73  26 133 115 233  82   2  67 218  32 201 146  85 127 192 115   7  59]
[114 249 106  78  95 213 146 104 139  76 252  47  40 220 102  52 220 185 151 193 143  43 186 255 123  92 129 251  83  14 126 223]
[120 153 158 126  49 158  80  53 163   9 102  69  63 219  32 208 164 189 181  64   8 153  18 173 203 255  80  67 106 134  42  27]
[ 79 249 244  83 171 220  57 146 239 253  23  37 172 223 214 238 167  87 253  81 199  72 251 225  79  91 127 235 142 134  13  95]
[171 186 228  80 239 241 189 223  91 127  20 255  40 188 214 175 175  27 215 149 183 126 166 243  30  91 254 239 223 212 223 221]
[207 247 127 225 238 123 255 222 105 127 191 187  13  30 223  63 175 215 223 247 244 119 173 224 118  89 238 231 231 253 167 245]
[200 235 122 104 112 156 123  52 228  12 118  96 187 131 162  80   6  56  77  88 194  40 160  63 103 237  32 201  98 130  78 169]
[173 106 127 229 100  15 235  80 109 232 119 230 219  75 149 121 126 236 126 110 129 180 229 200 214 249 163 128 109 171  67 177]
[223 116 255  94 235 119 119 248 249 222 167  28  78 254 175 255 183 213 238  98 229 103 186 234 115 251  69  31 226 119 239 119]
[ 42  52 242 153 109 253 184  74 191  63 253  59 140 158  78  30 239 155 255 145  22 119 210 210 223  87 154 239 195  76 111 215]
[ 90 151  23 190  11  68  29  61 165   6 203 129 237 103  42  86 118 183 237 162  72   9  27  79 241 230 222 137  32   6 165 122]
[127 126 107 254 126  51  75 248 117 206 247 238 123 207 191 113 126 237  95 239 233 247 172 253 242 235 227 152 111 191 114 113]
[223 190 244 247  51 122  31 184  59 238  31 237 237 127 143 183 183 117 253 103 165 196 173 239 234 255  45 151 174 231  15 117]
[ 11 151 184 251 245 189 191 183  95  77  94 119 252 127 158 100 223  27 183  21 151 184 107 247 111 127 190 194 158  78 157 223]
[ 17  30  99 219 246 163 235 115  84  65 219 246 121 235 176  96 127 170  22 156 187 191  52 255 120 174 170 192 189 200 112 241]
[104 242  90 104 112 140 122  57  52  12 116 101 191 131 162  80  22   8 133  44 194  56   0  29 102 233  32 201 122 128  74 137]
[149  45 125 103   2 110 109 105  48 182 163  16 247  54   1  59  38 149  88 234  41 213  57  76 145 235  75   0  33 241  39  96]
[168  92  57  94 124 229  81  19 214  14 228  16 178 215  33 120 201  56  10   8  42 174 122  63  71 175  49  57  80 136  68 162]
[ 84 188 189 177 138 200  61 183 186 247 130 149 245 119  72  91 167 215 125 145  59  73 187  35 233 167 255 221 160 112 133 122]
[ 74 178 228 156  15 248 113  15 191 215 134 151 168 174  70 206  99 167 235 145  22  77 183 209 159 115 219  75 166   4  61  94]
[106 248 240 211 125 221 186 198  59 125 188  47 172 222  86 132 239 155 255 145 134 126 251 247  31  93 159 235   6   6  79 223]
[203  94 126 247  45 127 121 176 189 126 182 119 255  95 191 239 239 245 255 175 237 229 127 253 214 251 251 147  15 245 109 121]
[ 48  80 151 116 133 111  68  71  81 186 226  10  66  61  33  59 249 246  64  32  41 247  81   8 177 210  85  18 193 120 246 170]
[123  51 123 236 125  95 219  88 111 236 252 239  91 223 214 180 254 157 255 237 205 179 243 220 247 253 163 187 127 174 110 247]
[151  23 111  33 182  27 174 112  76 232  91 231  81  12 183  33 126  45  31 239 213 177  37  12  96 137 171 132 125 171  89 209]
[ 82 174 190 182  42 165  25  54 174 253 146 189 183 175  66  67 135 119 125 133 188  73 138  57 217 227 127 187   0  32   5  75]
[162  54  63 216 106 167 184 123  28 122 113 251  20 188 181  41 223  59  23  37 176 231   2  95  68  26 122 186 213  72  51 243]
[ 87  89 171 166   4 198 235 240 164 192 203 198 113 238  53  96 252 253  59 231 137 131  60 232 145  44 139 136  45  51  53 116]
[ 19 141 235 235 212 167 235 247  84  65 223 130 121 235 176  96 121 171  23 157 155 187  60 255 188 175 190 192 189 202 240 248]
[ 74 178 255 208 233 252 185 215 171 255 148 189 140 191 214 190 231  31 255 145 151  79 178 192 223  89 255 239 134 196 175 247]
[127  27 235 175 246  50 107  16   1 200  94 230 121 109 147 116 126 238  21 255 153 146 100 238 118 109 168 128 175 247 120 241]
[139  22  54 217 125 253 185 123 159  93  84 119 188 223 182 237 207  49 255   1 167  93 115 221  79  91 250 219  30 140  29 247]
[ 63  82 239 229 102  22 111  88 113 234 247 230  89  47 151 123 126 213  55 238 233 247  45 200 214 235 239 132  47 183 114 241]
[255  25 114 234 127 221 251  81  79  76 245 175 110 223  55 228 254 185 159 215 142  39 123 251 247 125 138 187  87 143 124 223]
[127  84 246 237 103  86 255 120 105 206 255 167  91 127 183 246 126 245 191 239 205 179  53 204 243 255 239 131 111 254 124 247]
[221 115 107 100  50  26 111 120 112 232 119 238  91  15 155  49  54 205  20 238 237 210 173  14 242 233 165 132  45 179  98 113]
[ 88  38 174 183 130 104  24  14  54 243 198 169 255  46  82  91  55 215 253  21  60 221 135  32 216 227 127 145 164 244 191  91]
[ 94 188 152 164 186  96  95 155  35 228 142  41  95 179  67  86  51 215 253 177  24  75 217 226 254 229 173 191 174 246 134  83]
[157  83 107 231 102  86 127 240 100 204  95 230  89  31 147 240 126 221 183 238 201 150 173 234 246 237 171 132  47 183 111 249]
[ 86  79 254 190 170  96  95 138 133 158 159 163 111 255  35  75 119 247 239 163  72  69  11 232 242 247 111 155 182 247  36  67]
[ 84  73  29 111  40 141  67 184 230  12 170   8 247  83 137 114   0 240 108  74  10  33 107  61 225 224  33  24 112 179   4  32]
[ 55 113 234 202 119 213 250 220  79 204 253  42   8 221 255  36 126 248 151 255 206  51 188 192  63  93 135 239 119 191 124 213]
[252 243 189 113 165  93  85 159  83 253  54 124 155  61 219 191 129  94 253  88 159 120 233 145 203 219 117 247 234 220 222 123]
[190  80 126 252  47  94 253 120 205 222 181 183  75  95 191 111 254 241 255 231 236 231 119 200 211 219 235 151 103 189 124 215]
[142 248 182 218 233 245 185 215 159  95  84  53 172 222 103 239 205  59 183 145 135 111  58 241  79  83 222 235 154  92 173 255]
|--- image end ---|
|--- image0-1 ---|.jpg
[ 76 254 253 119 178 221  59 184 122 255  22 228 253 127 203 162 151 119 253  82 163  88 235  63 110 223 117 228 238 245  15 121]
[ 35 163 248 237 254 137 249  95  79 105 252 230 189 237 244  96 126 139  55 157 146  58 231 221 126 253 175 232 245 136 241 169]
[ 14  54 245 209 237 127 185  27 191 255 125  53 204 255 222 174 223  31 247  21 183 240 242 194  15  95 127 239 134 236 143 247]
[222 117  86 238 139 114  23 248  53 198 231  34  78 247  43 247 118 213 236 226 105 199 185 206 243 243  71  23  42 247  45 119]
[ 72  50 249  69  44 127 177  31 107 236 190 236 154  29 214  38   6  20 236  56 129  57 229 192  78  61  49 246  78 168  93 121]
[ 36 108 191  95  72 110 103 144 176 210 229   8 114 247   1  59   9 252  96 106 105 231 250  41 103 171  85  56  97 243  70 234]
[ 24 148 151 249  51 236  49  18 190   9  75 112 188 247  40 104 183  27  61  16  51 156  19 119 201 230  58  64 138   1 161  51]
[222 156 191 252 171 246 127 231 191 222 254  51 238 255  39  75 239 255 255 131 104 223 186 234 251 247 223 139 131 125 167 251]
[251 212 127 244 108  94 125 252 189 254 182 254  95  31 158 123 111 213 255 239 233 103 111 255 214 251 255 148  47 181 103 121]
[121  56 241  80   9 252  81  70 227 243 164  24  58 190  70 191 137 242 252  24  31 111 178 224 155 217  80 123 235 196  78  62]
[207 247 126 227 238  61 255 222 105 127 183 191  29  30 223  63 175 215 223 247 245 119 173 226 118  89 254 230 199 253 167 245]
[112 141  19 222   9 196  71 162 140  64 234   0 242 247  37 116 192 246 104  74  73  11 250  61 177 190   2  26  16  91 100  42]
[231  52 238  22 236 237 253 192 219 246 181 157 208 253  95  43 205 255 115  23 177 119 254 112  95  27 221  62 213 249 214 242]
[121  93  80 205  27  31  86 118  23 168 238  76  42  51   5 244 204 252 204  72 105 186 113 190 183 222   5  58 122  56  10  47]
[239 246 245 211 238 125 253 223 217 123  53 255 156  62 222 187 239 211 247 151 247 110 239 226 126  91 254 254 223 221 211 223]
[  9 161 250 225 254 171 232  95 111 225 126 206 157 171 246  32 127 143 127 157 147 250 199 209  94 221 187 232 237 200 227 137]
[ 37  40 123  85 100 219 226  64  94 170 117  72 147 152 213  57 152 124  34  74 133 246 236  50   7 143  97  33  81 169  94 160]
[202 162 214 188 141 248 104  15 239 215 134 147 173 234  86 207  35 167 232 145  54  77 182 209 142 243 223  95 134 100  29  78]
[ 25  72 127 237 102  11 107 248 109 224 246 226 255 195 177 112 126 236 126 238 193 181 165 252 246 233  35 128  45 187  97 185]
[219 182 107 225 118  50 123 218 119 110 222 246  27  15 222  97 127 141  31 191 235 246 229 215 214 221 187 228  47 141 112 121]
[101 109  29 103 148  14  71  48  96 160  43  72 211 113  17  51  16 228 104 106  73 176 217  44 229 168  37  16  72 251  82  32]
[203  94 126 247 109 126 121 242 189 126 182 118 255 159 151 127 239 213 255 175 229 231 255 237 214 251 251 151  47 253 101 121]
[210 236 188  90 153 209  86 238 255  23 172  25  46 255 100 211 225 211 233  82 122 111 186 247 251 219  85 123 146  83 238  14]
[149  21 252 109 178  78 189  25 124 194 119 242 215  55 145 107  54  85 125  58 177 244  53   8 231 235 102   0 237 241 129  49]
[ 45  72 237 119 180 254 123 150 127 241 118   0 219  61 215 111  23 108  53  93 133 248 253 172  79 251 117  64 239 189  80 101]
[ 74 153  67 204  67 196 107  51  33   5  79 160  76 231  32 212 119 183 163 138  81  26 186 245  23 182 138  78  50 199 164  50]
[249 246 235 232 126  18  75 252  87 233 246 246  91 207 254 112 127 205  63 253 203 183 231 198 218 237 167 196  47 138 112 121]
[ 48  80 151 116 133 111  68  71  81 186 226  10  66  61  33  59 249 212  64  32  41 247  81   8 177 210  85  18 193 120 246 170]
[ 74 184 224 157  79 248 177   7  63 103  78 183 172 174  86 204 227  47 171 149 150  88 167 211  31 119 218 203 134   4  61  94]
[ 10 186 180 249 237 253 185 223  31 125  84 189 172 191 254 236 207  27 255  21 151  88 243 245 207  91 254 239 158 140 133 255]
[ 24 137 247 117 199  92 125  39 229  21 102   2  59  57  16 102  96 214  49 136  80 248 247 129  71 235  84   1  99 224 196 170]
[255  86 107 228 118  18 235  88 117 202 247 230  91 207 183 121 126 244  31 255 169 231 173 206 210 233 163 140 111 191 112 113]
[219  86 126 253  45 125 121 186 173  94 182 183 255 127 159 235 239 213 255 175 173 101 119 217 215 251 251 147  63 253 109 115]
[ 19 141 227 235 214 167 235 247  84  65  95   2 121 235 176  96 121 171  23 157 155 187  60 255 253 174 190 192 189 202 240 248]
[202 178 243 208 233 252 185 215 171 253 180 189 140 191 214 190 167  31 255 145 150  79 178 192 223  89 255 239 134 196 167 247]
[208 189 188 240 153 205  20 223 155 187 172  57 174 191  64  27 133 215 237  16 122  75 210 178 251 215  85 127 128  64 135  27]
[ 11 176 250 241 231 253 185  87 239 253 118  55 140 159 214  46 166  63 255  17 151 253 179 192 223  89  58 227 142 140 141 255]
[202 176 188 208 233 244 185 151 171 255 150  61 140 191  70 254 199  31 255 145 150  79 242 192  95  89 222 239 134  68 175 255]
[ 60 141 106 232 212 163 226 247  86   1 252   2  49 251  32  96 121 186   6 184  26 187   0 255 251 207 167  65 183 202 240 162]
[229 114 159 102  32 110  71 152 113 238  55 124 214  81 201  63 150  68 108 106 233 244 169  10 192 251 101 150 202 243  70 113]
[125  20 158 110 154  47  87 186 118 131 175   8  87 115  43 112  17 214 104  58  61 135  89  31 251 167   5  84 168 123 160   2]
[224  77 191 252 200 203 180 103 154 166 224   9  53 191  37  83 200 183 107   1  96 111 210  24 117 163 254  57  81  88 230 138]
[ 95  82 239 229 102  22 255  80 105 234 247 230  89  31 159 122 126 213  63 239 201 247 165 200 214 235 239 132 175 183 112 241]
[157  91 107 231 102  86 127 240 100 204  95 230  89  31 155 240 126 221 151 238 201 150 173 234 246 237 170 132  47 183 110 241]
[ 45 254 147  76 217 175  71 158 119 138 108  76  58 243  33 220  17 232  34  28  10 184 115  63  29 158  21  14 210 125  64  35]
[234 185 164 154 205 245 212 237 203  94 165  25 174 252 110 159 201 227 235  67 126 107 250 241  27  81  92 123  82  92 222 222]
[127  83 107 239  39  86 255 248 101  76 255 167  91 223 191 244 126 221 157 239 205 179  61 238 242 253 170 133  47 191 124 115]
[110  48 164  16 169 125  80  11 251 255 132  61 142 236  79 159 133 195 237  21 190  67 242 192 155  83  85 127 202 101 142  87]
[142 186 190 251 233 244 185 215 191  93  84  55 140 222 102 237 239  59 183 145 151  92  58 241  79  89 250 203 154  68 173 215]
[191 113 106 228 119  87  91 248 113 236 255 175  91 221 191 180 126 252 149 239 205 183  61 206 251 221 161 151 111 175 126 115]
|--- image end ---|
|--- image0-2 ---|.jpg
[229 112 157 101   0  79  71 152 104 250  39  72 215  21  73  59 144  84 120 106 105 244 249   8 197 251  69  52  72  51  66  50]
[122  77 118 237 125  30 126 230  45 168 254   3 111  46  55 244 254 245 223 225 204 187  81 236 183 253 143 131  39 247 111 207]
[110  50 246 208 233 126 185  27 187 255 183  61 204 255 207 255 215  23 253  17 181  71 242 194  95 127 127 255 134 228 175 119]
[253 254 107 238 126 210  75 248 117 204 246 238 123 223 191 112 126 252  95 238 233 167 173 255 242 233 167 152 111 187 118 121]
[ 72  50 249  69  44 127 177  31 106 237 190 236 154  29 214  38   6  20 236  56 129 120 229 192  78  61  53 246  79 168  77 121]
[ 64  50  56  67  34  92  49  17 108 109  55 244 156  23 198 126  38  20 236   8 145 156 225  64 198 185  50 194  74 128   5 123]
[ 71 122 141  21 172  46 237 156 106 251  82 196 208  36 211 111   5  68 126  95 129 240 255  32  12  58 255 148 140 249  81 117]
[ 74 168 212 183 141 248 104 139 239 151 134 147 237 226  90 207  35 103 232 144  54  77 143 241 142 243 223 121 166 228  13  78]
[222 124 191 254 233 254  55 230 191 222 246  57 238 255  33 123 247 255 255  18 121 223 186 234 251 243  95  27 130 113 167 251]
[ 45  50 237 231 124  11 235  88 127 232 247 238 211  73 152 104 126 140 126  62 129 244 237 204 206 251 227 244 111 171  82 177]
[239 244 245 211 238 125 253 223 217 123 181 255 156  63 222 191 239 211 247 151 247 110 239 224  54  91 254 238 223 221 211 253]
[ 43 188  32 154 253 213 187 223  31  77  92  47 172 220 118 164 223  59 151  21 151  58 122 247 111  95 159 235 158  14 221 223]
[ 89  89 123 237 102  10 107  80 109 192 246 230 127  15 181 112 126 229 127 238 201 179 165 232 246 233 170 128  47 187  97 185]
[ 89 191 148 213 187 150  20 183 183 184 142  68 174 179  64 214 165 118 236 152  76  73 147 202 187 255  87  59 162 100 169  47]
[110  50 255 208 233 124 249  27 187 255 183  61 140 191 206 254 199  31 255  21 149  67 242 192  95 123 127 255 134 228 175 119]
[  9 209 253  85 226  94 173 183 236 210 126  96 249  53 148 107  38 118 126  76 193 248 247 105 102 171 118 128 110 240 193 249]
[ 74 184 176 155 125 253 184 170 171 125  28  47 172 254  86 228 231 187 255 145 134 122 250 247  95  95 159 235 150   6  15 223]
[ 84 184 157 179 130 108  61 151  58 255 130  57 151  55  64  90 167 215 125 144  59  89 155  34 217 231 126 245 160  80 167 123]
[  3  38 222 245 118 162 233  87  62 139  87  82 221 163 184 105 127  63  62 152 177 222 167 195 212 191 250 192 165 200 161 160]
[147  30  99 217 246 163 235  83  86  67 219 246 121 238 176  96 127 170  23 157 187 191  37 223  60 238 186 192 189 200 241 177]
[168 191  29 126 121 205  86 178 243 154 108   8  55 245   1  51 132 250 196  66 104 106 218  63 227 241  68  59 114 224  70 187]
[ 10  79  19 220  51 216 116 103 189   8  78  65 174 135  32 212 162  58 207   8  96 153   2 239 183 116  18 131  34 148 165  63]
[ 10 184 188 217 253 221 185 223 191 125  52  61 172 158  70 172 175  27 247  17 151 122 250 245  79  91  30 251 222  12 143 223]
[ 91 179 120  67  51 220  57  21  47  77 127 167  93  95 206 244  54 145 157 148 151  16 181 209  87 253  42 199 175 134 175 119]
[ 65 185 155  20 120 140  33 114 232 200  16 108 180 242 194 178 134  97  94  77 193  73 178  77 156  28  42 170   8  32  11 253]
[ 20  62 218 231 114 170  58  80  57 138 127 229  93 227 163  80  54 253 135 162 128 146 128  74 118 229  34 131 238 227  43 147]
[ 82 171 172 180 170 200  25  15 170 245 130 187 173 142  82  67 167  51 253 149  22  73 150  81 200 195  31 253 164   4 133  90]
[166 123 114 156 125 209 190 232  31 142 244   3 104 204  55 132 250 249 147 227  70 183  10 251  55  92 143 171  87  63 118 199]
[ 57  79  54 116  91 157 180 103 253 134 238   9 174 184  38 212 236 171 202   1 236 187  80 239 119 255  22  19  67  76 203 142]
[ 40  88 191  92 121 239  81  18 214  15 228   0 242 215  33 120 193  50 234  24   2 235 114  61  71 191  80  25 210 200  68 162]
[  5 105 255 117 164 202 121  19 111 176  98   2 251  57  85 110 130 108 117  93 204 248 247 232  79 250  69  66 231 136  84 110]
[195 167 122  26 196 249 114  67 125  71 109 157  42 138 254  80 163 170 198  30 246  62 174 243  22  28  16 107 112 196 238  78]
[ 87  89 171 166   4 198 235  80 164 192 203 198  81 238  53  96 124 253  59 239 137 131  60 232 145  44 139 136  45  51  53 116]
[132 221  59 190 244 199 191 226 158  74  88  67 180 223  33  64 253 123  19 195  99 190  26 255 117  38 175 136  20 123  53 251]
[ 66 158  90 152 234 177  56 103 157  27 123 247  76 174 166 216 231 179 167 128  20  27  14 215  30  54 114 207 189 196 169  23]
[208 189 188 240 153 205  20 223 155 187 172  57 174 191  64  27 133 215 237  16 122  79 210 178 251 215  85 127 128  64 143  27]
[153 202 127 237 100 137 109 116 101  64 246 230 187 131 176  97 110 168 126 206 201 190 101 253 246 233 226 128  62 152  97 169]
[ 95 115 249 229  38 127 251 152 107 236 158 239 219  61 215 166  54 213 253 239 137 176 189 202 255 221 175 180 239 247  93 121]
[ 60 141 106 232 212 163 230 247  86   1 252   2  49 235  48  64 121 170   6 184  26 187   0 255 251 207 167  65 183 202 240 162]
[ 88  34 174 182 130 104  24  15  54 243 198 169 255  46  90 123  55 215 253  21  44 221 133  32 216 227 127 145 164 228 191  91]
[100 163  60  99 168  15 195 153 110 189 167   8 211  65 204  18 145   4 108 122  88 240 233  16 205 141  37 116 192 163 199  33]
[ 95  83 110 237  54  86 127  60 101 204 247 231  89  31 150 228 126 213 191 239 205 180  53 206 246 255 230 128  47 190 252 113]
[255  25 122 234 127 221 251  88  79  76 245 175 110 223 183 228 254 185 159 215 142  39 123 251 247 125 138 187  87 143 125 223]
[ 90 150 239 167 182  58 190 166 172 175 154 231 237  44 158 194 247  71 253 165 156 129 173 201 174 111 254 149 164 118 189  93]
[ 45 254 147  76 217 175  71 158 119 138 110  76  26 243  33 220 145 232  34  28  10 184 115  59  29 158  21  94 210 125  64  43]
[175 170 224  19 231 189 234 199 123 255  52 255  40 200 214 140 191 106 198  29 150 126 174 243  30  94  53 239 207 204 219 205]
[191  82 126 252  47  94 221 120 205 222 181 183  75  95 191 111 254 241 255 231 236 231  55 200 211 251 235 151 103 189 124 247]
[110 189 251  68 243 242  55  67  35 197 124 170  56 247 228 116 115 255 181 152  17 155 168 234 127  45 167 235 167 226 230 115]
[  7  23 127 199 226  10 239 253 120 234 119 230  89 102 159 101 126 207  23 238 225 176  45 236 116  46 239 132 109 243 225 241]
[138 154 190 251 237 253 185 215 175  93  84  55 172 222 254 239 231  59 255  21 151  76  58 241  95  89 250 235 158  12 173 215]
|--- image end ---|
|--- image0-3 ---|.jpg
[197 112 189 101  40  79  67 152 106 248  39   8 215  21  73  59 144  84 120 106  73 244 249   8 205 219  69  52  72  51  70  34]
[105 168 247 241 236 171 233  95 127 251 250 222 157 171 212 248 239 143 126 157 147 122 231 212  94 223 255 236 206 200 227 177]
[ 45 112 236 177 237 127 248 216  95 255 181  28 159 156 219 174 207  76 254  28 151 116 255 144 142 217 247 244 222 253  91 213]
[218 149  87  78 219 242 115 153  55  81 239 178  76 215 140 244  55 150 238 248  51 211 187 223 191 240   1  71  35 199 164 117]
[122  28 172 180 205 118 148 111 211 254 180  27  10 188  87 155 201 246 253  33 252 111 210 138 123  91 221 191 195 124 254  95]
[216 149  23 254 179 202  53  39 180   5 203  48 255 119  40  83  38  51 237  32 112 137  49  79 249 227 122  67  32   0 165 123]
[  3 121 250  84  99 148 190 119 184 202 126 231  60 190 181 160 166 127 147 197 197 159 178 235  55  61  62 138  77  52 171 191]
[205 222 252 183 165  60 125 182 185 254  22 247 237  47  83 203 167 199 253 135 230  92 255 239 206 251 254 129  46 245   9  91]
[119  85  80  78  91  22  86 248 117 160 237  76  74 115  13 244  88 212 234 106  77 131 249 206 183 252   5  30 123 187 106  36]
[ 17 175 111 253 190 139 239 255 118 164 222 230 243 235 176  96 126 238  31 220 219 249 103 189 254 239 167 192  53 136 241 249]
[239 213 125 219 238 125 253 223 217 123  53 255 156  62 222 187 239 211 247 135 247 111 238 242 118  91 254 238 223 221 211 255]
[249 123 122 104 113 156 114  16 231  12 126  68  59 219  34 208 132 168 229  92 202 173 146  63  99 253  32  10 106 130 106  11]
[141  88 127 237 102  10 235  80 109 200 118 230 253  31 181 112 126 253  63 238 193 180 101 232 214 249 162 128  45 187  97 185]
[  8 109   3 181  49 201  37 103 188  68  74 169 175 167   0 212 170  59 207   1  97 185 128 175 245 247  30   1  66   4 135 250]
[187 214 127 241  46  94  93 252 189 254 182 246  95  95 190 115 110 213 223 239 237 229 125 238 242 219 247 212  47 188 117 121]
[ 37  40 249  85 100 251 224  64  90 170 117  88 211 216 213  56 153 124 102  10 133 246 236   2   7 143  97  33 193 233  86 160]
[147 132 223 189  70 162 232 115 188  67  83 242  93 231 176 105 127  47  63 140 177 221   7 207 212 239 250 192 173 232 161 177]
[ 84 184 189 179 130 108  61 151  42 255 138  57 151  55  64  90 167 215 125 144  27  89 155  32 217 231 126 247 160  80 135 123]
[239 191 244 119 177 223  95 185 251 254  55 253 255 125 198 183 151 119 253  36 181 108 239 191 234 223 101 247 206 166 206 119]
[ 85  64 218 165 118  46 111 136  42 104 123  71  85 227 177  82 182  77  53 110   0 144 153  72 228 172  39 132 172 243   1 129]
[ 33 221   8 185  92 133  71 191  22  73  76  93 178  19  10 112 213 138  26  12 207  10  83  55 229 157 180 120  24 216 208  26]
[116  54 220  67 210  46  97  25  51 183  47 220  83 103  73  95  53 214  96 190 184 210 249  64  93 174 101  68 227 227 194  32]
[254 236 180  90 141 241  86 204 255  31 161  24 106 250 111 255 225 227 234 210 110 111 186 243  59 127  85 123 210  87 110  78]
[214 185 189 181 138 200  61 183 170 247 130 145 245 247  65  91 167 119 125 145  59  73 187  99 201 163 255 221 164  96 133 122]
[ 43 184  56 218 125 253 177  91  95 109 252  43  40 220 246 164 221 187 151  17 151  62 106 243  95  93  59 251 215  12  95 223]
[ 47 182 244 221 253  95 191 251  95 254 252  47 236 255 246 165 223  91 255  61 231 107 235 223 126  95 111 254 158 236  25 215]
[197 119 157 101 160  14  71 188 112 234  54 108 215  33 201  27  20  68 108 110 233 244 217  10 228 171 101 148  72 243 194  49]
[104  32 157 116   8  76  65  27 162 185 166   8 151 179  64  26   1  84 104  24   8  72 211   0 205 162 117  60 192 160   6  34]
[104  93 118  53 113 153 180 103 252 162 234  41 172 186  37 209 224  55 234   1 100 185 208 238 119 255  86  19  74  84  75 138]
[ 69  96 221  71   8 122 226 136 226 226 171  72  83 224 221 186  49 212 104 250  13 103 239  34  11 237  69  61 225 243 106  36]
[161 221  29 191 124 205  70 190  86  88  96  68 182  19   0 113 192 106  18  76  99  12  83  63 101 170  48  24  24  25 208 155]
[195 167 122  74 235 189 124  71 239  69 109  29  40 202 254 116 178 171  34  28 214  58 174 243  54  28  18 107  80 198 235  76]
[ 42  30 118 222 125 253 251 122 157  78 244 175 108 255  55 237 238 177 255 195 164  47 114 253 215 127 218 219  23 141  45 247]
[ 19 141  99 251 150 167 239 119  85  65 219 194 113 239 176  96 123 170  22 156 153 187  61 255 184 238 174 192 189 202 240 232]
[153 190 154 183 144 189  22 158  86 191  65  84 246 243  74   9 149 107  44  30  62 220 219  51 233 199 117 120 136  89 137  11]
[ 74 178 182 240 233 252 185 215 171 127 180  61 140 191  70 190 167  31 255 145 151  79 178 192 223  89 127 239 134 196 175 247]
[153  74 127 253 102 136 107 244 125  64 118 230 189   3 177  97 102 236  62 206 193 188 103 253 246 233 226 128  63 152  96 169]
[214 148 174  60 142 240 176  75 254  83 207 179 229 236  54 107 227 119 249 129 183 197 159  67 154  35 123 203 141 100 189  86]
[202 178 228  19 205 253 240 143 219 127  53  31  72 232  94 143 169 194 233  21  54 108 250 209  15  91 213 127 203  76 220  86]
[ 19 205  75 249 150 134 234 247  54  65 218 210 121 203 176  96 127 171  31 221 187 159  52 255 250 239 190 192 189 136 176 136]
[226 189 159 176 203 201  20 103 186 179 168 153 180 190  64 147 129 179 235  17 103  75 210 115 189  19  95 123  24  64 143  58]
[ 88 238 138 183 130 104  28 143  62 231 198 169 255 174  90  91  55 215 253   5  92 221 135  35 216 231 126 145  36 116 189  91]
[ 88 234 218 167  34 232 115 150  35  79 110 173 191 231  66  88  51 239 109   4  10 152 130  33 216 231  52 137 160 210  15  91]
[127  82 123 239  55  86 255 252 117 204 246 231  91 223 182 244 126 213 189 239 205 179 189 236 243 255 174 133  47 191 124 113]
[ 25 252 145  57 155 175  85 158 119 146  96  76  62 243  65 220  17 234  40  28  42 204  83  63 201 158  85  30 178 117   0  34]
[223 118 105 231  54  62 251 152  57 238 183 238  91  15 223  63  54 213 221 255 233  69 173 202 210 201 171 180  47 247  67 113]
[190  82 126 254 111  95 253 248 141 222 181  63 110  93 191 255 254 241 223 231 236 231 122 252 211 219 239 187 127 191 124 215]
[138 171 144  89 233 157 100  71 191  59 100  88 174 163  68 156 129  42 234  24  98  92 130 211  15  94  85 107 146 196 203 172]
[102 189 251 196 243 242  55 231  51 193 108 170  56 247 228 116 115 255 183 152  17 155 184 234 127  45 167 171 167 242 230 115]
[191 115 107 228 119  87  91 248 113 236 255 175  91  93 191 180 126 252 149 238 237 183  45 174 251 205 165 151 111 191 126 247]
|--- image end ---|
|--- image0-4 ---|.jpg
[ 64  50 120  67  34  92 177  21 108 109  55 244 156  23 132 126  38  20 236 136 129 156 225  64 198 185  50 130  74 130   5  59]
[  9 163 238 249 252 175 232 255 127  57 254 238 223 233 218   0 127 143 127 157 146 251 207 213 222 223 247 236 253 200 233 129]
[ 79 254 244 254 253 253 255 248 223 254 253  47 236 254 255 164 255 251 255 227 247  99 250 255 255  95 239 255 158 255 141 215]
[221 116 150  86  11  94  87 248 237 222 167  28  78 247  47 255 180 212 236 106 229 199 186 202 243 251  69  31 106 247 111 119]
[193  52  29 184  44 237   1  26 222  91 145 120 150 148  64 107 193  16 126   1 171 103 243  18 133 178 114 122 144  73  87 115]
[154 140 126 189 102 130 233 115 188 198  87  51 253 235  50  73 123  45  63 173  96 221 131 223 220 175 251 128  37 168 161 195]
[122  52 244  77 125  95 211 123 127 236 252  10  74  61  22 180 217 220 255  48 172 250 117 222  95 223   5 183 115 172  78 255]
[193 105 123  72  52 220 227 112 100  72 126 104 179 149 176 112  50  44  30  72 195 188 164  63 101  45  32 184  64 130  71 233]
[ 88 149  23 254 147 238  49  55 189   9 203  48 254 119  40  80 162  51  93   0  51 137  49  79 225 230  26  66  34  64 165  59]
[143 255 180 219 253 253 191 253 223 127 125  61 236 254 254 164 223  91 247  87 247 112 122 247 111  95 111 238 158  95 133 247]
[223 247 118 227 238 123 255 223 105 123 183 255  29  30 223  63 175 215 223 247 244 119 173 226 246  89 238 230 231 253 167 213]
[188 100 123  96  21  79  71 232  81 166 160  26  83  89 121  49 121 220  68 122 104 247 120 154 243 205   5  61  99 121  86  98]
[231 116 238  18 236 237 253 192 219 246 181 157 208 253  95  43 205 255 115  23 161 119 254 114  95  27 221  60 213 249  86 242]
[ 24 109   3 189  49 201  37 103 188  76  90 169 191 167  32 212 160  59 207   1  65 185 128  47 245 245  58   1  66  20 135 250]
[239 244 245 211 238  61 252 223 217 123  53 255 156  63 222  63 239 211 247 151 247 110 239 226  54  91 254 254 215 221 215 255]
[ 47 183 188 216 253  95 191 251 223 250 188 111 236 253 255 164 223  91 255  51 247  99 250 223 127  95 111 255 222 126  31 247]
[228 106 123  84 100 221 224  80 123 170 118  72  18 209 181 185 186 252 102  74  33 246 226  56  23 155  97  40  65 185  70 161]
[ 78 185 244 243 175 252 185 147 239 253  63  37 236 223 222 238 167  87 253 145 151  72 187 225  79 121 127 195 142 198 141  95]
[215  19 229  71 166  58 175 152 122 249  31 246 217 108 223  46  55  69 124 255 145 112 237 194  44  30 111 148 207 255 193 117]
[  9 201 255 117 226  94 125 183 101  83 110   0 249  61 144 107  38 126  48   8 193 248 183 161 103 235 116   0 103 240 197 232]
[215 247 237  65 182  94 191 188  91 250  23 254 219 108 223  47  55  85 125 255 241 116 237 202 238  91 111 244 175 191 209 117]
[247 100 254  94 203 119  87 232 251 214 165  25  90 252  63 123 255 213 250 102 228 103 186 234 123  59  69  63 209 115 239  70]
[168  92 185  94  93 229  81  19 214  14 228  16 178 215  33 120 201  56  10   8  42 174 122  63  71 175  48  25 210 136  68  34]
[111 183 253 223 253  95 255 248 123 254 188  79 252 255  94 247 223 223 255 255 247  99 251 253 255 255 207 190 142 254 222 247]
[203  94 126 247  44 127 121 176 189 126 182 183 255  95 191 107 239 245 255 167 237 229 127 253 214 251 251 147  15 245 101 121]
[ 43 186 224 147 238 177 184 215 219 127  84 247  40 188 246 172 175  91 183 149 151 122 174 241  30  94 254 234 223 205 159 221]
[ 16 134 222 253 246 170 233  87  62   3  95 242 221 227 176  72 119 191  63 153 176 220   5 199 212 175 250 192 165 200 161 161]
[104  48 157 116   8  76  65  27 162 189 166   8 151 179  64  26   0 148 108  24   8  75 243   0 201 163 113  60 192 160   6  34]
[ 93  95  90 172 114 130  62 114  60 200  90 231 125 230 163  96 118 253  39 231 229 152   5 110 244 167  42 128  45 179  41  17]
[187 115 107 193 118 159 235 113  65 232 119 230  89  29 190  49 126 188  23 239 225 182  36 204 118  73 161 164 111 143 114 245]
[ 24 137 247 117  71  92 125  39 229  21 102   2  59  57  16 102  96 214  49 136  80 248 247 129  71 235  84   1  99 224 196 170]
[127  19 230  76 205  86 253  93 193 204 255  46  72 125 190 238 124 148 245 249 157 163 180 192 115 121 226 207 239 247 254 247]
[234 248 112 211 125 221 255 213  59 125 180  63 172 158  86 188 239 155 255 209 198 127 251 243 255  93 159 251   7  28 223 223]
[ 19 141 227 235 212 167 235 247  84  65 219 130 121 235 176  96 121 171  23 157 155 187  60 255 253 174 190 192 189 202 240 248]
[ 96  24 189  89  41 205 145  11 206   1 164   0 178 151   4 122 192  48 234  24   3  40 115  17  71 189  16  59 208   8  68  58]
[220 180 188 181 138  38  25 186 178 182 130  61 215 183  67  91 151 245 125 149  40  69 217   2 217 227 255 180 168  96   7  83]
[153 202 127 237 100 137 109 116 101   0 246 198 187 131 176  97 110 168 126 206 201 190 101 253 246 233 226 128  63 152  97 168]
[ 70 158  90 152 234 176 184  99 157  27 123 247  76 174 166  88 231 179 167 128  20  27  14 215  30  54  90 207 189 196 169  23]
[ 21 141 107 248 148 135 235 247 214  65 222   2 113 251 176  96 121 170  22 156 187 187  36 255 249 239 174 192 181 138 240 224]
[120  84 158 228   9 110  84 127  48 182 166  21  87  51  41  91 197 212 233  32 104 199 209   8 211 227  80  21 162 120  36  26]
[194 189 159 176 203 201  52 103 190 179 136 153 180 182  64 147 129 179 235  17  99  75 210  95 189   3  95  59  24  64 135  58]
[123  86 246 229  39  86 255 124  97 236 254 167  89 127 150 246 126 213 253 239 205 179 181 206 247 255 239 131 111 190 124 119]
[156  92  63 190 143 230  87 180 165 214 134  23 255 125  35  75 227 227 109 103 104 229  59 254 241 227  87  19 178 119 165 106]
[ 88 166 170 167 162 234  91 158  35 109 222 161 223 239  90  80  55 223 125 149 158 144 205  64 216 229 175 133 164 198 175  83]
[138  26 179 219 109 253 185  86 159  95  87  55 140 159 166 237 231  27 191  21 151 220  50 241  71 123 122 235 158  77 173 223]
[175 170 224  19 231 189 250 199 123 255  52 255  40 200 214 140 191 106 198  29 150 126 174 243  30  94  53 239 199 204 219 205]
[127  83 106 239  39  86 255 248 101 204 255 167  91  95 191 244 126 221 157 238 205 178  61 238 242 253 162 133  47 191 124 113]
[107 172 212  24  77 185 144 111 203  55 172  24 170 184  70 190 137 162 234  16  30 107 246 209  31  82  84 123 219  76 202 206]
[255  82 235 231  46  22 255  88 225 202 247 230  91  31 191  98 126 213 127 239 233 183 189 202 242 233 171 132  47 191 112 241]
[142 248 182 218 233 245 189 215 159  95  84  53 172 222 103 239 205  59 183 145 135 111  58 241  79  83 254 235 154  92 173 255]
|--- image end ---|
|--- image1-0 ---|.jpg
[120  57 248 228 250 200  81  23  34 165 126  40 151 183  64 114  70 189  61  16  26  26 240   8 253 237  54 105 160 128 135 107]
[ 80 140  62 240   8 197  89  99 164 150 170   1 183 215  32  91 225 177 109 128  72 207   2  20 217 135 119  25  32 168  37  42]
[100 120 189  96  89 237  81 142 198 185 172   8  18 151  65  58 201 180 105  88  11  99 242  16 219 153   5 126 208  25  70  50]
[136 140  27 251 176 175 119 167 254   3 106  16 247 241  32  80 211 122  10  16  50 188  90  63 237 231  53  64 208  74 192  42]
[156  12  46 249 157 183 252  71  94 167 210  19 137  56  55  73 233 171 155 145  60 254  81 190 239 207 222  65 247  93 249 138]
[143 217 172 179 172 221 191 188 158 127  23 167 253 238 219  75 231 123 191 215 230  92 255 241 238  67 239 229 156 255 157  83]
[175 254 228  92 221  55  95 254  83 254 244  93 122 253 151 189  93 238 183 174 173 246 255 191 127 127 245 188 235 252  90 253]
[177 143 103 199 214  90 175 231  84 166  90 226  97 104 148 229 123 126   2 171 241 248 109 239  44  46 135   0 103 248 244 236]
[144 185 171 183 180 193 175 197  22 195  85 179 181 205 120   0 120 123 147 195 123 220 168  35 229 133 174 169  36  11 181 250]
[232 249 149 118 169  77  85 191 235 187 160  24 246  49  72  51 129  86 108  90 122 109 219  53 235 250  85 126  66  48 194  42]
[ 20 173  31  98 210 203 115 241 167 132 174  32  87  87  64  48  51 178  77 120  90 139  40  60 235 197  37  96 226 130 166  98]
[ 10 216  54 157 109 215 188 103 189  73 210   3 172 158  54 229 232 191 251 129  69 255 115 221 183  58 222  11  18  28 181 222]
[ 37 221  27  64 212 223 231 189  79  96  46  72  82  81 172 116  57  18  10 106 211  56  57  63  61 156   5  84  89 154 192  36]
[200 172 152 187 129 233  48 199  62  59  65  17 164 243  72  88 161  91 106 145  50  92 138 115 205 199 127 111 152  64 175 138]
[ 43 159  82  76 244 159 238 125  93  72 120 236 104 248 180 180  30  42 150 110 213 186  76 255  38  30  37 170  95 190 218 157]
[149 191 156 211 170  21  63 245  94 191  85 118 173 226 234 107 167  75  38  94 247  92 170 224 142 201 119 238 152 211 169 197]
[165 188 245 118 254  47 212 251  91 251 112 123 126 253 213  41 151 127 119  49 180 124 170 191 127 222 117 254 223 232 211 247]
[ 97 173  17  77 189 237  71 175  78  43 168  24 242 112  76 180 145  66 104  56  58  42 203  63 173 158  21 126 218  74 194  46]
[ 88 249  26 242  50 204  88 103 160 161 170   9 191 155  64  80 166 183 205  16  74 137 144  63 251 229  48 113  32   0  14  11]
[150 223 159 187 188 207 135 238 159  95 210 247 230 236  43  73 205 115 174  83 123 236  91 175 168 150 222  82 216  89 189  93]
[ 51 188 245 253 254  47 178 123  95 171 250 106 126 125 132  42 191 127 119  33 177 255   9 254  29 254 117 214 205 106 195 163]
[ 94 115 191 173 187  87  63 216  61 236 215 165 221 231 203  86 246 125 255 126 160 211 251 136 255 227 175 157  38 247  37 115]
[ 85  52 220  99 176  42  99 154 115 163  47 104 211 113 201  58  19 212 108  58  25 240 221  10 206 255  37  84 234 227  66  32]
[  1 217  57 109  52 205 209  55  79  97 124   8 191  29 148  32 150  58  22  24 195  56 114 157 109 220  52 112  92 136 209 249]
[255  82 111 237 110  50 235  88 237 200 247 230 123 223 183 106 126 245  63 239 137 183  39 200 214 233 235 128  47 251 112 113]
[ 53 159 149 237 172   7 134 253 140 186 152  98 214 115 161 227 223  86 127 107 217 235  75 140 168 223 239 150  28 122 209 169]
[ 93 241 216 226  26   6  26 152 107 160 169  76 223  82  73 114  54 221 124 250 207   3 217  68 249 221   7 124 168 163  35  17]
[ 88  94  26 254  50 195  83 118 150  12 236  32 183 211  32  80  82 187  15 128 106 143   0  63 241 231  34  25  48 130  36  43]
[230 122 157  18 169 125  22 136 171 254 133 237 238 246 205 159 135 245 237  86   5  71 170 104 155  18  69 191 194 119  15 117]
[204 232 149 178 201 237  52 140 186 179   1  89 228 230  72 139 193  91 234  19  54  79 218  49 157 211  95 126 128  81 135 154]
[212  13  61 245 152 111  29 170 164 240 138  16 215  54   1 107 129 119 121 113  57 201 113  60 233 227 111  20 144 113 133 114]
[ 17 174 213 229 242  39 174 254  58 171 250 226 253 115 128  51  63 223 127 169  49 218  73 110 172 142 255 148 205 226  35 169]
[228 222 191 158 232  44  22 188 186 219 203 249 246 247 169 123  85 246 106 110 232  71 234 111 253  39 111  24 128 243 165 121]
[ 19 140 107 219 148 167 235 246  86  65 222   2 113 235 176  96 121 170  22 156 187 187  60 255 249 174 186 192 189 138 240 184]
[ 79 115  82 160 115 156 122  80 169   8 119 237 142 147 202 212 182 129 222  70 196  19 128 192 182 253   2 202  10 135  43 213]
[248 193  13 110 136  14  71 189  36 176 231  12 243  99 136 115  16 198 104 106  89  67 255  61 245 163 101  20 104 242 130  40]
[252 252 252 124   9 223  86 248 179 182 164   9  71 251  75  27 153 241 237  98 110 103 218 155 251 211  69  63 242 249  78   2]
[ 44 235  65  79 212  10 103 253  67 128 124 238 115 225 180 116  88 236   6 238  91 186 236 253  62 172 165 108 127 170 242 168]
[ 17 141 107 216 148 195 235 247 212   1 218   2 121 251  48  96 120 170  22 216  27 187  36 255 249 175 162  64 181 137 240 232]
[ 56  77  98  78  83 219 127 112  33   4 252 139  43 207 183 148 122 184 135 234  76 186  52 236 115 237 128   9 103 151 110 254]
[ 59  91 107 238 118 210 255 116 101  76 254 230 123  13 183 228 126 250 151 239 205 187  37 237 242 237 162 128 127 158 120 249]
[ 85 175 221 229 188  46  99 186 110 225 254  68 215  99 144 114  83  76 108  46 153 216 237  12 236 255 231  20 172 235 208  33]
[205  84 149 183 171 124  44 159 190 251   2  84 223 118 201 239 135  71 124  31 181  68 251  32 140 242 127 140 138 117 129  53]
[123 115 120  64 105 221  89  88 227 108 180 173  11 157 198 182 140 152 213  92 143  35 246 144  83 217  32 187  99 134  78 247]
[200  60 149 180 233 237  20  63 178 250 128 125 159 183  65 159 129  53 232  16  35  79 210  24 141 210  93  62 138 100   7 155]
[ 47 167  66  72 215 179 226 202  95  65 124 238 104 232 188 180 121 234 130 252 151 178  44 255  62  92 133 234 223 207 250 180]
[153  74 251 253 198 170 125  83 253 130 118 230  29 131 177 105 102 189  63 156 161 156  36 202 214 239 250 128 175 240  33 169]
[110 190 244  26 239 249 144 202 203 119 188 187  42 236 110 191 203 139 226  17 150 111 238 241  30  81  85 127 215  76  94 223]
[221  91 239 231  38  10 239 112 112 234  86 230 113  38 147  99  62 229 127 239 225 213 165 106 116  43 239 128  45 243 113 249]
[ 43 151 121  75 254 119 191 121  95  77 125 230  88 252 190 164 223  26 150  61 151  50 124 215 102  29  33 236 223 206 250 245]
|--- image end ---|
|--- image1-1 ---|.jpg
[110  48 246 229 125 111 122  73  63 168 251  10 206 254  77  94 254 221 255 179   4 243 217 216 159 248 135 183 167 111 103 147]
[122  48 242 248 109 253 248  66 171  31 180  27 142 159  70  26 239 155 255 145  30 111 242 211 223 223  90 123 195  76 111 215]
[206 215 245  87 171  89 159 173 187 127  50 189 206  46 204 151 167  87 237  70 112 109 175 247 186 250 127 254 215  20 199 127]
[247 236 228  94 171  49  30 172 187 242 134 185 232 244 223 255 199 247 249 127 166  71 255 243 187  58  93 191 134 245  14 116]
[208 224 156 190  41 104  81 142 171  55 160  57 166 147  72  91 129 215 237   0 106  71 203  49 209 243  88  63  16  80   7  10]
[141 163 154 225 236  57 173 223 238 191  20 112 141 163 226 239  39  11 174  28 150  92 138 208 140 217 127 237 158 248 137 133]
[149  42 156 187 172 165  61 222 158 154  92  70 188 243 227 107 229 123  62 222 135  64  10 241 200 153 255 168 152 249  41 137]
[191 150 238  85 191  83 190 255  94 238 214 247  73 108 190 164 127  71 183 167 253 241 109 206 106 111 255 215 199 252 253 213]
[ 41 217  53  79 109  77  71 188  68  24 108   8 246 117 168 228  88  18 106 106  65  32 123  61 101 191  96  84  82 154  68  40]
[170 108 114 219 221 241 244  71  95 171 248  19  40 184  53 137 233 171 131 145  54 254  64 186 119  95 150  59 213  93 248 142]
[  5 246 115  67 114 175 171 248  60 225 125 196 125  71 216  36  63 123  19 254 147 176  56 127 111  31   3 224 103 147 163 241]
[ 94 123 241 166 186  70  31 152  43 224 138 207 223 127  65 194 118 213 253 243 201  67 217 232 185 245  15 190 172 243  37 113]
[197  67 155 255 234  32  47 152 186 146  91 226 213 227 233  74 119  79  46 222  81 212 143  98 228 171 111 140 164 243 161 161]
[ 92 228 166 190 141 125  71 232 247 191 141  24 239 242  91 191 177 199 252 251  58  71 235 179 185 247 207 127 130 119 159 102]
[197 248 149 180  40  12   0 130 170 178 162 120 150 210  65  91 135 117 104  16  99  69 219   0 152 162 127  60 136  32   3  32]
[133 191 156 211 170  21  63 245  94 191  85 118 173 226 234 107 167 107  38  94 247  92 170 224 142 217 119 238 152 219 169 197]
[242 182 237 182  58  98  94 190  55 238 214 255 111 127 146  93 247 247 253 163 172 223 237 238 251 246 255 151 166 244  52  91]
[ 12 118 191 238 168 103  31 216 190 238 221 165 221 231 235  90  94 125 239 246 224  67 251  56 243 243 239 188 150 243  39 243]
[100 233 121  67 210 207 103 165 101  48  43   8  82  85 140  49  49 180  98 122  81  56  57  53 127 142  37 100  97 130 198 160]
[169 141   6  61 213 150 110 247 117 136 234  86 115  97  48 209  89 238   2 172  60 250  85  63  63 239 132  64 107 168 250 136]
[112 255 121 101 114 134 127 244  33 232 126 238 115  23 128  52 126 252  23 238 201 146 229  61 119 172  37 128 111 178  70 249]
[246 226 132 186 201 229 212 204 155 191 129  27 110 250  93  27 169 243 251 147  46  79 218 241 153  18 221 127 209 117 158  10]
[189 115 105  65 118  91 255 216  81 236 116 238  27  13 159 181  62 216  23 254 225 182 108 156 102 201 165 164 111 191  86 241]
[149 252 152 241   2  45  61 222  30 190  16  86 149 250  99  41 183  89  62  66 167 212 250  51 197 137 127 172 152 121   1 219]
[150 223 158 187 180 207 135 230 159 223 210 118 230 232  43  73 205 115 174  83 123 233  91 175 169 150 223  82 216  89 189  93]
[105  48   5 109 109 159  64  24 206 248 116  76 246 208 214 242 144  44 124 108 135  97 243 157   7 249  33  60  90  46  90 213]
[176 201 127  65 210 203 103 165 100  56 106  72  83 243 204  48  48 188  98 106  81 186  41  61 109 136  37 100  97 146 198 160]
[ 88  94  26 254  50 193  83 118 148  12 238  32 183 211  32  80  82 186  15 128  74 139  66  63 241 231  34  25  48 130  36  43]
[ 95  83 253 229 167  94 255  16 109 236 191 166 217  63 215 110 126 213 255 255 133 241 245 192 215 249 238 132 175 183 109 115]
[204 232 149 178 201 237  52 143 186 179   1  89 228 230  72 139 193  91 234  19  54  79 218  49 141 195  95 127 128  81 135 154]
[212  93  61 245 152 239  29 174 172 240 138  16 215  54   1 107 161 119 121 113  57 201 113  60 233 163 111  84 144 113 133 114]
[125 235  91 102 116   2  79 252  99 168 252  76  83 195 209  16 120 204   4 254 202  50 140  44 250 141 165  44 105 179  98 136]
[ 40 137 132  89 189 151 192  39 214  29 228  17 162  33  22 196 201  34 106  28  62 234  67 189  14  58 208  81 210  12 248 142]
[ 17 140 107 251 148 167 235 247  86  65 222   2 113 234 176  96 121 170  22 156 187 187  60 255 249 174 186 192 189 138 240 232]
[116  50 152  67 173 121 144  73  74 191 177  60 135   8  78 154 137  12 206  18  30 118 233  18 159 213  33 127 192  75  95 135]
[216 129  13 110 136  74  71 189  36 176 175   8 243  99   8 115  16 198 104 110  89  67 255  61 245 163 101  20 104 178 130  40]
[106 137  36  28  45 209 144 175 135  93 132  25 226  44   6 198 201  98 237   1  30 107  99 181 139 247 220  91  82  12 220  94]
[ 95 241 249 225 111  92 251 216  43 253 191 239 159  31 222 246 254 213 255 221 143  19 249 192 223 221 175 254  47 143  95 119]
[226 174 238  18 236 185 180 199 251  31 180 185  34 200 214  27 169 170 239  21  62 111 134  19  90  83 116 251 197  76 222 207]
[ 56  77  98  72  83 219 127 112  33   4 252 139  43 207 183 180 122 184 135 234  76 186  52 236 115 237 128   9 103 151 110 254]
[109 133  17  14 217 111  71 171  99  97 233  72 122  96   8 244  17 198  96  40  25  26 250 127  57  54   5 124 218 102 194 116]
[ 85 161   9 231 180  15  75 185 102 233 255  68 247  99 152  48  92 198 124 236 153 144 233  13 236 237 175 196 104 130 128  32]
[ 27  95  99 207  54 146 239 119 116 200  94 230 121  46 182 100 126 239  23 239 229 152  37 239  54 110 170 128  47 150 161 253]
[123 115 120  64 105 221  89  88 227 108 180 173  11 157 198 182 140 156 213  92 143  35 246 144  83 217  32 187  99 134  78 247]
[ 95  50 251 227 166 118 123  24  41 237  23 247  93  31 223  62 183 157 149 191 157 208 173 192 218 221 171 198 175 231  39 117]
[ 47 167  66  72 215 179 226 202  95  65 124 238 104 232 188 180 121 234 130 252 151 178  44 255  62  92 133 234 223 207 250 180]
[238  92 228 222 237 116 156 154 139 222 181 191 108 255 127 255 205 247 253 135 164  71 251 224  23 123 223 159 151 117 126  87]
[138 176 180 147 237 253 185 207 159 127  21  53 140 222 110 239 231  27 191  17 150  92 186 209  79  81  95 239 150  76 141 215]
[ 42 184 162 146 223 245 176 199 155  87  20 187 172 188 126 140 137  27 179 145  22 122 186 241  31  85 222 235 215  76 191 222]
[141  10 255 225 230 186 237  83 125 194 118 230 157 139 245 111 110  45  62  60 161 252  37 200 214 249 231 132 239 232  97 161]
|--- image end ---|
|--- image1-2 ---|.jpg
[ 46 177 242 206 253  95 250 232 127 168 253  47 200 222  78 148 255 157 247 177 158 114 251 221  31  62 139 239 215  46 127 151]
[ 13  50 107 229 100  11 235  16 109 224 247 238 219  75 153 112 126 236 126 238 129 182 237 204 198 249 163 132 111 171  99 177]
[ 84 236  62 240 136 201  85 103 164 150 174  24  55 211  96  91  33 179 105 144  88 239   2  52 217 163 117  89  32 160 165  34]
[104 141  30 127 176 171  70 167 244   1 106   8 247 243  32  80  81 118  72  40 120 184  88  63 233 231   5  80 112 234 194  42]
[222 158 238 180 187  82  95 191  55 238 150 183 109 119  18  85 119 215 253 167 252 207 253 175 251 247 255 215  38 164 188  83]
[141  79  19 250 252 128 239 240 148   9 209  80 245 227 184 225  94 235  30 206  59 134  74 127 228 169 170 200  28 155 161 160]
[210  70 214 252 133  38  78  47 177 138 234  82 107  99  41  87 241 247 109 162 104 197 129 206 179 246 214   3  34 112 228  10]
[102  60 175 254  79 101 187 200 136 219 217  95 252 253  89 139 205 123 243 135  33 103 218 160  85  17 203 186 141 123  23 250]
[207 191 220 163 176  50  61 147  57 253 159 245  76  47 219  31 167  71 253 253 182 208 109 230 238  83 237 197 142 247 139  85]
[118 163 179 194 141 213 151  65 207 191 145  26 204 248 126 132 253 115 235   1 146   3 186 210 185  84 143  63 131 126 181 231]
[164 238 193 155 220 105 231 207  27 183  57  94 194 232  93  25  89 202   2  51 115 118 218 179  60 150 149 124 217 123 210 130]
[ 80 237  23  46 152 202  71 173 168 128 170  72 247 226   8  83  18 102 108 106 121 201 138  61 168 162 101  24 104  50 131   8]
[220 176 255 111 171  95 119 248 119 255 119  56  95 247 138 245 183 220 252  34 169 240 187 157 223 251 101 135 226 231 206 119]
[232 120 153  96  89 205  81 134 194 168 160   8 178 151  97  50 200  48  73  88  11  47 240  18 233 157   5 122 208  24  70  42]
[  0 141  27 251 184 205  37 167 190  17  72  16 183 179  32  64  65  59  42   0  18   9  19  55 237 167  54 120 144   8 133  42]
[205  92  29 252 124  63 173  59  90 250  52  92 220 119 153 173  23  21  94  47 161 100 121 223 229 159 107  60  30 232 137 177]
[ 86 253  27 178 235 233  22 231 191 186 136  56 238 254 109 153 163 243 206  19 127  75  26 255 185 150  95 127 152 120 173  15]
[189 122 120  96 116  95  83 216  81 236  52 110  27  29 219 176  30 152 149 122 171  54 124 190  90 201 161 253 127 187  94 241]
[145 142  79 189 118 163 232 247  30   1  90 246 125 235 176  64 127 175  55 157 178 248   7 255 156 239 186 192 181 200 177 137]
[ 53  73 249 111  36  78 199 184  68 192 120  64 243  81 129  96  82 124   4 106 201 176 121  41 225 173  36   0 113 187  84 169]
[242 182 245  84 242  38 122 254  59 171 242 251 124 127 132  25 255 223 117 160 169 222 201  79  24 174 255 134 165 224 163  57]
[197 142 141 190 188  35 207 170 150 130 154  94 245 226 185  67 217 195 106 175 121 103  75 255 252 150 239  28 156 250 177  32]
[120   0  63 252  13 198  65 104 197 202 230   0  82 215  33 127 216 180 120  40   9 163 242  12 211 251 192  25  18  40 100  34]
[149 252 152 245   2  47  61 222  30 190  80  86 149 250  99  41 183  89  62  66 167 212 242  49 197 139 127 172  24 121   1 219]
[ 48 201 121 109  18  75  71 188 114  36 100   8 115  81 137  48  50 220  68 106  74 181  41  57  97 168  33  52 113 179  70 169]
[ 39 175  99  73 246 193 171 195  75  69 120 230  32 142 252  16 126 170   3 220 147 186  36 101  44  12 142 226 205 138 247 245]
[ 61 223 107 238  54  82  95 252  69 204 254 230 123 109 183 224 126 252 159 238 201 179  45 239 242 239 167 128 127 191 120 121]
[218 123 151  54  43   8  23 180 169 222 130 237 238 231 131 215 166 247 237  70  72  73 139 105 176 242  77 154  42 119   7 127]
[202 178 247 241 229 124 185 151  59 255  54  55 140 191 214 239 231  31 255 145 150  92 243 192  95  91 254 231 134 196 167 255]
[189  83 111  69 102  95 253 112  85 254 118 246  89  13 151  47  62 196 151 238 225 244 101 204 102 203 229 132 111 189  84 241]
[162 253 222 157 255 203 181 231 158 228 122  35 172 190  38 131 235 127 163  65  97 249  18 255  45 182  95   3  93  56  45 223]
[194 188 191 250 221 252 176 183 187  91   4  24 180 253 108 115 129  51 251   1  51 109 178 247  31 115  90 123 144  64 151 123]
[ 95  83 253 229 167  94 255  16 109 236 191 166 217  63 215 238 110 213 255 255 205 241 245 192 215 249 238 132 175 183 109 115]
[ 17 140  75 251 148 167 235 246  86  65 218   2 113 251  48  96 121 170  22 156 187 187  61 255 249 238 186 192 189 138 240 168]
[ 25 167 157 231 184  47 239 189  36 169 255  68 255  35 152 162 124 199 126 236 153 152  77 108 172 239 239 212 136 226 131 168]
[205 182 141 215 156  47 103 184 118 170  23 126 215 113 201  35  57 196 110 106 161 116  79  62 252 143 101  52 232 251  81  49]
[ 42 255 120 234 253 221 251 255  95 125 125  47 188 223 190 164 223 155 151  81 215  58 120 247 255 221 191 255  95 142 141 247]
[130  27  95 181  54 202 185 103 188 140  90 163 172 190 180 192 230  63 191 129  32 185   0 206  20  55 186 131   5   8  61 203]
[221 156 181  83 161 110   7 159 126 251   3  80 222 118 201 239  23  86 124  30 187 196 251  34 137 186  95  84 130 117 129 117]
[244 122 222 102  34  90  86 192 105 142 178 124 119   2 207  27 174 213 236 226 108 247 129  42 146 227 100  19 105 115 110  27]
[109 133  17  14 217 110  71 175  99  96 233  72 114  96   8 244  17 198  96  42  25  26 254  63  61  54   5 124 218 102 194 116]
[ 69 175 221 229 188  46  99 186 110 233 254  68 215  99 144 114  83  78 108  46 153 208 237  28 236 239 167  20 168 251 208  33]
[213 230 159  85 156  47 101 186 118 186 182  88 211 113 137  41  57 196 110  44 169 245 237  30 254 143 101  52 232 248  65  32]
[121 115 120  96 105 221  81  88 227 108 180 173  27 157 198 180 140 156 213  92 143  35 246 144  83 217  32 187  99 134  78 247]
[206 176 182 146 239 253 184 195 139 255  21  63 140 252 110 143 167  23 251  17 150 109 186 208  31  91  95 239 134  76 141 215]
[ 83  95  79 133 178  18 110 118  37 234  90 231 121  46 183 102 118 231  61 239 229 153  37 238 182 110 238 128  45 246  41  93]
[238  92 228 222 237 116 156 154 139 222 181 191 108 255 127 255 205 247 255 135 164  71 251 224  19 123 223 159 151 117 126  87]
[110 190 244  26 239 249 144 202 203 119 188 185  42 236 110 191 203 139 226  17 150 111 238 241  30  81  85 127 215  76  94 223]
[ 61  95 107  69 118  22 239 244 101 232 126 230  89  31 151 100 126 236  23 238 233 176  37 236 118 237 167 128 111 183 240 241]
[153  10 255 253 198 170 125  83 253 194 118 230  29 131 177 121 102 173  63 156 161 157  36 202 214 239 250 128 175 240  33 169]
|--- image end ---|
|--- image1-3 ---|.jpg
[237 188 189 126 253 127 215 255  83 239 244  60  90 124 158  45 217  70 246  44 189 239 251 191  91 255 117 255 219 236 222 215]
[ 45 219  83 173 100  66 179 248  72 104 112 231  81 156 166 192 222  77 134 103 213 178 108 149 112 237  35 204  93 175 114 209]
[191 150 228  93 183 115 190 254  94 238 222 247 201 108 158 165 127  79 183 167 252 248 109 206 106 127 255 151 199 236 125 213]
[174 221 240 222 237 180 126 255  83  19 125  18 104 255  61 125 221 251 147 202 254  98 250 243  63 254 215  47 243 247 226 174]
[199  75 159 190 234  32  46 132 168 154  75  96 220 227 169  90 230 103 126  79  64 193 138  96 180 176 110 136 140 243 161   1]
[ 12 230  17 163 252 169 234 140  78  49  57  88 151   1 216 136   3  74  74  94  19  52  73  55 172 148  55 116 212 155 193 160]
[139  49 147 183 203 117 173 213  22 250  91  86 188 183  73 175 108 123 179 139 147 208 218 224 133 193 254 160 138  85 161 185]
[110 188 167 182 201 100 191 246 168  91 153  95 220 126  28 178 237 215  91 167 177  75 218 225  53  38 254 142 141 119 183 243]
[116  99 152 228 186  14  86  27 162 161 170   9 215 243  65  82 130 245 109 112  26  73 209   8 251 229  37  93 232 176 138   2]
[ 57 175 142 191 148 183  76 191  54 243 198  85 115  96  26  73  89 110 104 140 185 216  91  63 169 231 221  80 136 204 248  24]
[ 12 119 191 238 184  99  31 216 174 238 221 165 221 231 235  90 215 125 239 230  96  67 250  58 243 243  47 188 150 243  39 243]
[ 86 204 166 183 133 130 126 164 183  51 211 147 237 107  57  75 243 247  61 211 120 220  25 255 175 246 223 199 182 251 177  10]
[ 78 252 244 255 187  54 127 152 191 150  71 161 253 247 203  91  87 125 253 238  42 192 235 191 239 255 239 133 166 247   5 115]
[ 92 228 166 190 141 125  71 232 247 191 141  24 239 242  91 191 177 199 252 251  58  67 235 179 185 247 207 127 130 119 159 102]
[183 132 173 255 188  39 206 239 158 170 153  82 208 104  61   3 221 211  95 167 249 231  75 255 168  30 239 148 157 250 241 160]
[ 86 253  27 178 235 233  22 239 191 178 136  56 238 254 101 153 163 243 206  19 127  75  26 255 185 150  95 127 152 120 141  31]
[117  52 220  99 176  43  66 155  99 179 175  56 215 113 201  62  19 214 108  56  57 240 217   2 202 223  37 117 234 227 202  32]
[ 85  80 159 207 138  38 110 152 166 154 139  70 221 115  41 107 117 213 126 234 129  65  27  96 145 174 239   4 168 243  33  49]
[101 237 127  67 210 207 103 229 101  48  43   8  82  87 140  49  49 182  66 122  81  56  56  53 127 142  37 100  97 130 198 162]
[ 19 158  99 219 244 163 235 247  86  67 218 214 121 234 176  96 127 170  22 157 187 187  52 255  60 174 186 192 189 200 241 248]
[197 132 141 190 188  99 207 171 150 130 155  86 245 226 185  67 217 195 106 175 121 103  75 255 248 134 239  28 156 250 177  32]
[124 107 151 118  41  72  87 180 161 172 170  41 111 247   1 211 128 246 236  98  72  75 139  41 241 227 101  25  98 115   6 107]
[120   0  63 236  13 198  65 104 197  74 230   0 114 215  33 125 216 180 120  40   9 163 114  28 211 251 192  27  50  40 116  34]
[105  49   5  77 125 159  64  24 207 248 112  76 246 208 214 246 144  44 124 108 135  96 211 157   7 249  33  60  90  46  90 151]
[ 85  20  61  43 154 239 187 186 238 241 171  69 245 126  41 113 151  87 120 179 165 129  57  60 233 170 111  84 152  67   1  82]
[141  78 198  85 198  14 238 178 117 162 106 198 123  41 151 203  62 228  50 238 229 244  21 238  38 171 197   0 111 252  88 136]
[ 53 159 149 237 172   7 134 253 140 186 152  98 246 123 161 227 223  86 127 107 217 235  75 140 168 223 239 150  28 122 209 169]
[ 80 133  29  14 154   7  71 189 164 180 143  76 247  99   8  83  16 198 104 110 121   9  89  61 249 163  37  84  48  98 165  32]
[198 101 247  76 235  27 126 248 191 162 245 136  77 255 205 119 118 221 255 234  96  83 171 218  63 250  69 191  50 243 226 135]
[ 27 223  74 180 114 146 190 246  60 202  94 231 109 238 179 196 126 239 151 237 228 154   4 239 118 103 174 129  47 180  43 221]
[129 157 157 247 164 237  36 167  94  59  98  80 180 178  64 107 133 127  58   0 113 220 211  35  45 186 118  64 152  88 129 168]
[ 63  18 255 229 173 126 253  88 109 238 247 167  93  63 151 235 238 213 255 239 141 241 117 200 215 251 227 130 239 255 124 243]
[ 33 173  73 201  84 143 232  55  87  97  76   6  49   9  20  32 120 142  19 141 211 184  85 215  47  12 144 100  61 136  88 168]
[ 17 140 107 251 148 231 235 247  86  65 218   2 113 234 176  96 121 170  22 156 187 187  60 255 185 174 186 192 189 138 240 168]
[ 85  75 221 103 170  31  79 189 102 232 190  76 255  98 129 114  54 228 108 110 205 129 109 104 238 207 103  20 104 178 201  41]
[106 139  36  29  45 209 144 175 135  93 132  25 226  44  22 198 201  98 237   1  30 107  99 181 143 247 216  91  82  12 220  94]
[ 39 107 200  75 124 145 194 136  66 224 176 207 163 200 213  32 200 232   2 215 142  42 206 185  14  28 161 184  93  43  90 140]
[ 79  18 251 228 102 118 249  81 109 206 215 230 221 159 247 106 126 149 191 191 129 183 165 200 214 249 234 132 175 231  37 113]
[142  24 246 209 239 125 185  82 143 255  55 183 140 190 119 175 175 119 247  21 180 229  50 192  79  91  91 199 199 125  13 215]
[ 94 180 180 225 187 127 153 155 175 253 159 189 207 126 206 175 183  85 253 181 191  65  59 212 203 223 111 247 142 101 143 119]
[124 132 145  72 217 175  67 175  55 161 234  72  82  99  40 212  89 194  78  56  27 139  89  63 185 182   5  84 186 202 224  32]
[201  29 159 253 242 138  37 115 190 170  66  96 245 179 161 113 243 124 126  40  96 221 145  30 252 239 103 132  32  96  33 171]
[191 115 121 225 118  95 127 248 105 232 245 238  91  31 159  48 126 157 151 238 201 178  61 220 246 217 161 164 111 191  82 241]
[123 115 120  96 105 221  89  88 227 108 180 173  11 157 198 180 140 152 213  92 143  35 246 144  83 217  32 187  99 134  78 247]
[200  60 149 188 233 237  20  63 162 250 128 125 159 183  65 159 129  53 232  16  35  79 210  24 141 210  93  62 138 100   7 155]
[ 47 167  66  72 215 179 226 202  95  65 124 238 104 232 188 180 121 234 130 252 151 178  44 255  62  92 133 234 223 207 250 180]
[153  74 251 253 198 170 125  83 253 194 118 230  29 131 177 105 102 189  63 156 161 156  36 202 214 239 250 128 175 240  33 169]
[110 190 244  26 239 249 144 202 203 119 188 187  42 236 110 191 203 139 226  17 150 111 238 241  30  81  85 127 215  76  94 223]
[ 42 184 162 146 223 245 176 199 155  87  20 187 172 188 126 140 137  27 179 145  22 122 186 241  31  87 222 235 215  76 191 222]
[ 43 151 121  75 254 119 191 123  95  77 125 230  88 252 190 164 223  26 150  61 151 186 124 215 102  29  33 236 223 206 250 245]
|--- image end ---|
|--- image1-4 ---|.jpg
[ 42 241 114 154 125 155 242 233  31   5 124   3 108 216 126 196 250 251 163 241  70 178  90 255  63  20 143  43  23  14 252 215]
[156  12  46 249 157 231 252  71 222 175 210  19 137 185  53  73 201 171 155 145  56 255  83 190 239 207 223  65 245 124 253 138]
[212 251 156 182  40  12  80 168 170 184 162 121 215 147  72  27 163 215 108  82 106  79 219  33 152 240 117 126   8   1   3  11]
[ 80 192 158 224   8 173  85 247 166  55 174   8  87 227  41  80  49 246 109   0  72   3 130  17 209 231 117  29 176 240  36  42]
[ 88 140  20  55 145 175  70 167 182  35 106  24 247 115   0  80  33 230 104  24  58 152 217  63 237 231  21 113 240  82 139  10]
[141 163 154 201 236  57 172 159 238 190  84 240 141 163 227 207  39  11 174  92 150  88 142 208 142 217 127 173 150 252 137 141]
[247  81 245 229 228  78 109 156 121 240 250  78  83  63  93 122 126 221  53 252 137 242 249 192  61 186 231   4 173 242  98 240]
[238 189 181 246 219 204 182 181 136 251  17 255 252 253  76 131 143 243 243  83 243 103 218 231 125  16 111 250  79 111 135 179]
[104 161 124 101 116  79 113  49  96 172 245  40 211  17   8  19  24 156  68 104  88 242 225  12 231 201  33 117  98 138  70 163]
[ 45 157 185  91 253 221 215 182 223  73 188  40 178 253 245  36 205 122  23  88 155  42 122 191 111 157  53 250 218 155 212 251]
[ 86 253  27 178 235 233  22 231 191 178 136  56 238 254 101 153 163 243 206  83 127  75  26 255 185 150  95 127 152 120 141  31]
[ 49 235 111 233  30 139 239 121  70 232 244 198 211 203 176  96 126 172  95 254 219 185 101 157 254 233 167 224 117 138 240 161]
[ 74 182 253 241 237 124 253 159  59 255  22  55 156  63 222 235 231  23 255  21 183  88 243 192 207 251 254 231 134 196 207 255]
[252 237 167 178 173 241  71 224 250 190 129  40 198 254  97 251 193 247 252  83 126  71 234  50 185 243 207 127 128 115 182 102]
[ 76 115 187 238  40  67  31 216 174 236 157 165 221 231 235  82 214 125 239 230 193  67 251  56 241 241 111 188 150 243  39 243]
[ 33 221  57  89 188 221 215 183  79  73 124 108 178  92 149  36 205  58  22  25 195  40 114 191 111 220  52 250  88 136 209 253]
[ 70  40 188 250 173 237 144 130 207 151 176  24 142 185 101  11 131 115 253  19  50 109  66 224 203 218  86 123 208 105 133   3]
[179  72  99 166  81  66 107  96  53 192 195 131 121 150  51 240 122 173  19 239 109 151  52 238 145 108 138   0  37  39  50 196]
[ 61  95 107 239  54  22 111 248 101 206 254 230 123 237 179 100 126 252 159 238 201 179  45 239 242 237 167 132 111 191 112 249]
[  2  93  58 159 116 199 190  96  31  76  93   7 228 222  39  64 252 123  19 195 230 186  58 255  55  54 138 139  17  27  53 219]
[ 42  52 250 209 125 253 184  66 175  29 253  59 140 158  70 158 239 155 223 145  22 123 242 208 159  85  26 107 211  76 111 215]
[252 245 190 190 169 255  86 200 246 190 133  40 207 242  75 251 153 253 236 115 110  71 250 186 185 247 109  63 130 119 190  34]
[ 95  51 251 224 162 122 123  16  41 236 151 239 221  63 223 127  54 213 221 254 145 208 173 192 218 217 235 196 175 167  39 113]
[226 220 158 252  74 223 188 119 186 186 148 220 149 189 112  11 143 119 243   1 225 111 146 123 247 179  95 191  93 120 143 155]
[ 48 201 121 109  50  75 103 252 114  38 228  40 115  17 137  48  50 220  68 106  72 181  41  61 225 170  33  52 113 179  70 171]
[ 93 123 216 228  90   6  90 184  35 168 188  78 127  87  65  48  54 253  93 250 201  18 217  40 251 237 165 188  43 179  42  57]
[ 76 125 254 244 236 110 255 250 123 238 190  43 223 255  91  58 255 247 127 171 232 227 251 234 255 255 111 188 228 251 103 115]
[246 122 151  20 169 125  22 136 171 254 161 109 206 229 207 159 133 244 236 114   9  71 234   0 155  80  69 191 194 119   6 119]
[ 88 115  82  96  33 140 118  80 169   8 191 109  15 155 130 144 166 181 237  70  76  33 128  64 210 253  32 147 106 134  75  19]
[189  83 111  69 102  95 253 112  85 254 118 230  89  13 151 175  62 196 151 238 225 244 101 140 102 203 229 132 111 188  86 249]
[ 16 124 191 229 152 239  31 135 142 226 138   1 247  62  33  34 161 119  89  17  45 141  49  42 233 135  63  16 136 120   5  90]
[ 56  75  88 103  48  11  87 188  32  36 174  40 119   3   1  16  50 212  76 106  72 163  73  61 225 229  33  21 112 179  70  43]
[ 43 178 249 225  38  95 217  25 107 125  53 253 159  31 222 190 183 149 213  60 151  52 237 209 206 221  49 246 126 140 199 117]
[  6 221  59 190 116 231 175 242  30  74  88  66 180 255  49  64 252 123  19 195  67 186  26 255 117 166 170 136  21 123  53 179]
[101 164 141 191 252  34  77  58  26 163 251  76 213  99 152 120  89  78 126 174  57 214 217 142 140 190 255  20 140 234 210 160]
[238 176 244  83 237 125 176 139 203 255  55  59   8 188  94 175 133  87 253  17 182 109 187 192  15  91 213 247 199  77 220  87]
[  6  48 178 145 253 253 184  66 175  61 249  51 140 158  70 142 239 155 223 145  22 123 210 208 159  84 154 235 210  77  39 215]
[246  43 223 109 232  79 239 105 191 170 242  76  93 234   5  83 182 181 110 178  65 199 131  88 185 186  79 140  65  96 103 161]
[209  99 159 165 172  15 237  95 126 186 242  88 215 179 129  59  60 173 110 168 105 245 131  92 253 162 103  20  72  96 163  32]
[120 147  36  43 189 249  81 143  79 125 142 189 143  28  74 204 201  18 237  17  30  40 251 149 203 213  17 119 242  12 220  95]
[240  44 188 124   9 205  80 107 179 158 160   9  39 219  67  19 129 180 109  32  44 111 210  31 219 219  65  59 114  32  78   2]
[128  49  31 253 232 207 173 119 188 170 242  20 156 183   4  81 232  63 127 136 113 216 209  76 229 186 254   0   9  96 227 186]
[ 27  95  99 199 118 146 239 118 116 200  94 230 121  46 182 100 126 239  23 239 229 152  37 239  54 110 174 128  47 150 161 253]
[127  91 123 237  61  94 223 112 109 236 255 167  95  31 183  96 254 213 255 239 205 179 241 200 243 253 162 146  47 191 116 115]
[ 95  50 251 227 166 118 123  24  41 249  23 247  93  31 223  62 183 157 149 191 157 208 173 192 218 221 171 198 175 231  47 117]
[ 81  45 217 101 180  46  99 182 110 233 238  64 151  33 145  96  34  70 108  76 153 184 245  44 239 239  39  84 168 251  65  41]
[153  26 255 253 198 170 125  83 253 130 118 230  29 131 177 121 102 189  63 156 161 157  36 202 214 239 250 128 175 240  33 169]
[170 184 147 216 233 253 116  71  63 235  96  88 174 183  64 156 137  62 226  24  19 126 210 210  31 214  84 106 202  76 138 159]
[ 42 184 162 146 207 245 176 199 155 127  28 187 172 188 126 140 137  27 243 145  22 122 186 241  31  87 222 235 215  76 191 223]
[ 43 151 121  75 254 119 191 121  95  77 125 230  88 252 190 164 223  26 150  61 151  50 124 215 102  29  33 236 223 206 250 245]
|--- image end ---|
|--- image2-0 ---|.jpg
[ 39 253  18 158 253 151 190 232  31 192 248   3 108 248  62 192 254 235 179 243  70 179  90 255  61  20 143 175  29  31 122 158]
[236 176 157 103 136 111  67 152  50 186 167  24 215 119  73  59 145 212 124  58  41 102 251   2 205 187  69  52 192 243  70  50]
[ 42 184 224  26 251 249 177 199 187  93  60 189 172 252  86 142 143 123 211  17 150 107 250 243  31  87  29 251 215  76 207 223]
[212  72 230 119  14   2  76 128 225 178 163 146  67 107  21 123  34 229 125 234 104 197 143 232 146 234 197  21  37 241 112   0]
[ 43 187 224  88 109 221 241  93 235  93  52  45 168 220 214 188 175 187 247  85 151 106 254 241  95  89  81 235 223   6 223 255]
[ 60  93  18 248 153 199  22 223 214   8 232   1 119 217  33  64 217  26  10 112  74  35  18 159 251 199   7  79 210 120 228  10]
[219 251 123 235 114 156 123  52 173  72 118 229 191 159 150 116 166 189 223 207 199 152 164 253 246 253  42 194  47 134  99 125]
[ 84 241 191 234 168 236  93 157 174  25 171   0 215 215  72 122 132  19 125  26  19  65 155  17 201 233 110 124 128  19 135  51]
[124 188 186 114 233 173  87 214 115  47 236   8  55 243  67  56 145 254 125  24  26  58 250  51 219 207  53  56 224  91 198  42]
[229  69  81  79 212  70  71 253  81 224 232  74 115 113 189 245  88 204  18 234 233 178 125  63  53 172 133  20 127 186 242 164]
[179 254  99 219 118 179 235 246  87  74 216 230 113 206 180 100 127 170  22 206 235 191  44 255  54  46 170 192  61 138 113 253]
[ 80  48 155 244  40 205  81  67 162 177 166   8 183 151  64  58 160 188 108  16  10 107 178   1 209 161 112  57 224   0   7  42]
[ 52 173 191 126 204 239  85 231 214 183 173  24 115 253  32  59 201 242  99  42 120 107 122  61 251 203  85  49 240 248 214 170]
[247 106 136 160  13  29 210 200  75 188 181  15 130  72  95 138 217 192 206 119 142 103 203 144 146 217 161 191 217  63  90 135]
[167 142 140  27 156 183 202 250  86  59 245  86  99 232 191 237 217  74  38  63 174 103  79 191  42  31 245 252 221 253 120 132]
[248 255  57 124  56  64  23 254  50  12 244 104  54 151 161  17 198 219 205  66 106  79 227  63 243 241  52 187  80 145 166 123]
[223  78 198 151 142  62 238 158 124 242 146 215 201 104 151 239  55 197 248 239 237 245 221 234 164 106 207 148 173 253  25  20]
[ 68  18 252  69 110  10 177  16 108 164  55 226 209  33 197  42  38  84 110 120 128 240 229  72  78 169  97 132 229 171  69 161]
[106  16 172 220 237 116 213  15 219  95 180  61 200 252  62 255 205 147 255  17 190 111 242 208  91 123 222 219 210 108 252  87]
[ 40 175 251  65 244 169 103 215 123  13 124 104  51 179 196  52  27 122   6  24  18 186 224  51 111 221  52 232 194 202 198 169]
[213 109 159 102 129  78  71 176 224 160 175   8 247 115   9 115 144 246 104 106 105 225 153  44 169 233  69  16  96 179  66  32]
[106 176 160 154 205 245 185  71 155  93 133  25 168 222  94 158 201 187 243 145  30  79 250 209  31  89 223 107 147   4 255 222]
[188 228  58  80  29 211 199 228 209 142 244  26  82 209 250  37  88 120  82 122 104 231 232 142 123 217 133  61  67  56 246 226]
[ 83 162 168 152  44 213 153 207  78  61 148  59 132 156 254  40 233 139 127 145 158 123 230 209 217  21 186 255 148   8  29 207]
[ 76 233 190 114 170 204  91 144 171 148  39 169 255 215  67  26  38 115 253  94  66  73 170  96 203 217 101 249 162 179   7 123]
[ 85  85  31 103 144  78 103 185 100 224 235  72 215 119   9 113 176 212  88 106 105 177  57  14 241 235   5   4 104  51 227  50]
[ 46 236  50 158 125 213 186 232  31 140 253   3 108 222  46 132 248 249 147 195  70 182  42 255  55  84 143 171  87  62 125 223]
[ 19  30 202 255 246 162 106 119  54  67  91 246 121 227 176  64 127 171  55 156 185 153   4 239 186 174 190 192 173 232 177 177]
[228  37  89 104 204 105 199   9 202 166 185  24 215 209  73  34  27  16  74  58 114  39 234  18 245 128  37  60 209 123 199 160]
[  2 189 157  90 184 237  19 159 142  89  25 108 246 246  12  48 149  59  94  16  19   8 122 125 173 150  61 250 216  74 133  59]
[100 160 105 160  94 201  81  73 195 245 129  43 151 221  80  56  74 185 115  81  26  42 230 144 221   4 139 121 180  10  22  98]
[110 184 188 210 237 245 145 202 203 125 181  61 172 156  70 191 205  19 255  17 158 111 250 241  95  81 218 251 146  77  94  87]
[206 122 252  84  41 221 217  19 171 255 182  61 142 188 215 191 135  53 255  21 149 109 243 192  79 219 117 251 198 188  13 119]
[ 17 140 107 255 150 167 235 119  86  65 219 198 113 239 176  96 125 170  22 157 185 187  61 255 184 175 190 192 189 202 240 176]
[201 153  29 125 168  77   5  59 226 112  39 124 247 114 200 115   6  70 104 110 241  72 255  53 196 171  97  56  80 225 131  97]
[113 140 200 167 180  42  71 143 114 231 206  45 247 120  82  82  83 206 125  13  28 154 221  35 236 191 181  84 172 226 218  74]
[148  30  95  81 178 250 178  98 188 140 115 242 221 174 165  97 183 125 174 146 181 221  45 110 168 167  43 193 165  97  45 133]
[252  96 149 101   9  78  71 140 113 178 166  24 215 113  73  59  49 212 108 106 105 244 241  42 241 235  69  20  98 241  66  34]
[238 251 162  26 237 241 156 135 223  95  84 189 168 220 119 175 206  43 251  87 246  79 230 241   7  89 216 251 150  85 253 223]
[ 32 171  97  73 208 223 106 215 103  33 124 192  35 231 212 180 124 186   2 220 155 186 109 117  47 140 132  64 227 130 230 168]
[ 60 141 106 232 212 163 230 243  86   1 252   2  49 251  48  96 121 250   6 184  26 187   0 255 251 239 167  73 181 219 240 170]
[ 82 222 253  61  34  10  20  55  55 126 155 245  71  39 130  83  39 149 236  35 236 197  77  31 178 246 117 150  44 240 132  87]
[ 10 184  48 250 237 245 185  83 143  93 221  53 172 223 110 236 207  59 191 145 151  11 122 241  79  93 154 235 158  12 173 215]
[207  30 191  30 168 124  61  49 236 254  87 244 253 118 175 251 135 103 254  36 181  77  47 109 102 123 122 146 158 247   9  93]
[ 95 242 162  53 161 126 149 150 123 207 158  53 143 252 211 190 149 109 252   7 205 228 246 130 202 127 127 151 202 116 143  87]
[ 97 161 241 169 244 172  99 159 103  77 106  13 183 179  82  84  49 142  38  24  26  58 211  17 239 252  52 104 170 202 194 232]
[ 67 159  87 135 242  50 127 183  45  72  90 231 125 110 150 116  54 231  63 238 213 152  45 237  46  62 238 130 175 247 161  93]
[126   2 244  28 109 124  80  75 219 119 164  29  74 232 111 222 201 228 237   4  44  99 242 129  19 127  81  63 211 108  94  86]
[106  34 226  80 221 208 216  75 251 149 180  27  10 172  86 158 201 132 227 148 158 107 226 194  27  93 149 123 195   4 126 198]
[139 178 177 217 237 245 185  87 191  93  85  53 140 222 230 173 207  59 247  21 151  92 162 209  79  89 126 235 158  76 173 215]
|--- image end ---|
|--- image2-1 ---|.jpg
[ 33 255  85  79 248 175 167 190 110  41 124 108 242 113 133  52  14  82  70 106 211 184 121  61  44 158  37 114  88 219 194 185]
[ 78 164 220 243 169 109  93 143  59  55 164  25 143  55  74  27 135 215 237  16  58  76 203 115 207 211  85 127 162 192 135 107]
[111  67 164 165  45  14  79  56  65 236 146 205 203   8 219 134  28 196 125 239 204 208 197 136 236 112 237 148  46 191  80  84]
[165 115 125  65 246  11 175 220  74 248  53 238 211  92 223  43  30  76  86 127 161 240 109  28  44   8  37 180 205 187  82 245]
[ 96 168 185 241  28 205  81  19 118 177 166   8 151 183  64  56 129 188 104  24  27 120 241  16 207 207  49 113 192   8  70  34]
[ 47 160 192  11 221  61 224 201  75  49 241  94 202 232  92 174 217 140 242  29 159 114 222 209  30  88 131 126 223  14 218 132]
[245  69  65  79 212  70  79 253  81 224 233  74  83 113 189 245  88 204  18 238 233 178 125  63  53 172 133  20 127 186 242 160]
[ 42 141  67 217 211 209  38 231   7   1 104 162  33 135 160 228  74 186 131 192  91 154 100 191  44   4 152  99  55 140 164 188]
[218  88  44 190   8   4  93 172 164 206 130 143 245  71  19  67 164 229 125 231  76  71 147  61 241 227 254 152  60  54  53  90]
[ 24 171 110 251 254 139 239 117  62 165 247 226 255 233 176  96 126 171  46 220 218 250 111 253 254 207 175 224 117 138 241 169]
[179 222  99 219 118 163 235 242  87  74 216 230 113 202 180  96 127 170  23 207 235 191  44 255  48 238 170 192  61 138 113 185]
[ 88  56 155 244   8 205  81   3 162 185 166   8 183 151  64  58 160  60 108  16  10 105 178   1 209 161 112  57 224   0   7  42]
[106  52 178 152 109 253 248  67 175  63 253  59 140 158  70  26 239 153 255 145  18 119 210 208 223  85 154 239 195  76  47 211]
[ 88 190 190 242 168 173  81 151 178  31 190  57 183 243 194  91 167 183 109  16  58 111 138  51 219 227 116 249 160 192 135  43]
[ 60 235  26 234 189 141  87 216 198 140 109   0 247 209  41 192 216 122 134  90  74 179  10  57 233 197  37 104  82 155 104 163]
[252  38 183 228 137  98  85  10 177 182 162  25  71 183  65  91 241 213 237  50  40  71 195   2 211 227  69  31 162 113  38  98]
[ 32 179 170 160 176  43  21 119  34 237 158 189 134 173 194   0 143  31 205  21 158 251 193   2 250 213  61 247 204 204 159  83]
[167  92  69  31 102  47 239  48  89 194 113 206 113 108 149 187  46 236  18  47 229 244 125 109   4  42  65 128 109 251  82 213]
[255  51 251 226 246 126  91 216  59 236 183 254  91 127 223  58 126 221 221 255 173 243 189 202 218 221 163 180 239 247 118 113]
[ 95  83 231 133 162  18 174  48  44 234 211 230 221 110 157 238  54 101 125 239 205 209 173 200 176 234 239 132  45 247  33 117]
[120 172  29 101  56  75  85  55  50 182 168   8 183  49  64  19 129 254 108   0 104 126 193  30 235 195 117  49  96  96  70  42]
[ 69 114 253  69  34  42 187  16 104 238  55 236 223   5 197  58  55  84 236 122 129 244 173  72  78 141  97 148 238 243   7 113]
[238  18 180 212 173 125  81  27 207 255 183  61 206 189 198 175 135  52 253  16 156 101 243 128 203 219  85 255 210 236 221 119]
[ 82 162  40 152  44 213 153 207  78  61 148  59 132 156 254  40 233 139 127 145 158 123 230 213 217  21 186 255 148   8  29 207]
[121 252 152 101  44  45  86 190 122 190  44  12 247  49  73  18 145  70 100  14  72 100 219  51 227 207 117  60  72 120  74  10]
[ 79 187 227   3 243  84 191 175  43  85 190 180  40 182 222 246 103  95 190 220 215  75 191 224  62 124  30 206 207 212 171 253]
[110 144 188 216 237 116 153  31 139  95 181  61 140 252  78 238 205  19 255  17 151 107 242 192  79 123 222 255 214  76 223 119]
[116  97 151 246 137 100  85 197 161 191 162  25 102 183  73  91 240 215 237  16  24 195 211   0 153 242  84  59 160 112 166 106]
[ 42 176  32 154 205 245 185  71 159  93 117  31 172 220 126 140 173 187 243 145  22 111 186 209  31  81 218 235 211  12 175 222]
[  3 188 153 211 176 237  61 159  58 123  23 124 180  54 200  42 135  95 125  24 147  92 251 115 173 151  63 230 136 208 135  57]
[ 91 164 233  32 155  86 216 142 107 241 140 131 153 174  94 242 247 207 152 181 159  90 245 192 187 125 158 109 165 132 171  92]
[ 23  14 234 255 246 162 234 119 118   3  91 246 121 235 176  64 127 171  55 156 185 153   4 239 248 239 190 192 189 232 241 145]
[ 79 150 126 163  99 246 121  51 173  95  31 247 221  31 186 247 167  21 191 175 213 149  53 197 198 251 170 195  46 134 173 115]
[ 17 140  99 255 150 167 235 119  86  65 219 198 113 234 176  96 121 170  22 157 187 187  61 255 185 174 190 192 189 234 240 176]
[ 19 119 234 135  54  50 106 220  31 105  95 231 105 108 159 228 118 206 183 189 135 144  45 203  46  44 173 132 175 222  56  93]
[  7 185 153  91 248 237  59 159  46 121   9 236 244 246 200  48 151 123 126  16 147  24 251 117 237 150  61 240 152 194 131 121]
[145  36 220  87 136 123 164  79 246 187 246  48 243 184 140 171 105 158 238 128  63 253 199   1 134 227 118  17 201  72 235 156]
[ 53 113 106 225  82   6  91 112  33 228 172  15  17   7  86  16 124 140  17 254 205 147 180 132  95 141 161 236  41 130 114 208]
[ 43 163  96   8 215  18 238 239  67   5 125 202   9 232 190 148 122 138 130 173 222  58 236 215  62  60 134 237 119 134 250 196]
[255 223 109  69 118  94 253  53  73 204  95 230  89  44 150 103  46 228 151 239 245 248 101 204 126 105 229 192 111 190 208 117]
[ 33 241 122  66 116 151 214 229 235 129 248  40  82 216 236  48 216 252  66  64 221 187 248   5  59 156  37 110  73  18 226 167]
[ 91 223  70   5  50  18 190 182  44 104 254 231  93  39 134 212  54 199 253 238 225 153   5 207 182 239  42 132  47 246 169  93]
[ 73 137 154 161 164 168 113 151 127  65  78   8 183 241  82 112 243 174  60  25 158  24 199  49 204 247  55 105 172 194 217  10]
[211 223 107 133 178  18 111 180  53 104 222 231  89  38 151 117 118 231  53 238 237 152  37 239 182  46 174 128  45 182 161 125]
[ 10 120 178 210 239 253 185 214 171  95  52  61 172 158 103 174 167  59 247  17 135 109 186 241  15  89  94 235 134  84  15 223]
[207  30 191  30 168 124  61  49 236 254  87 244 253 118 175 251 135 103 254  36 181  77  47 109 102 123 122 146 158 247   9  93]
[ 67 159 119 135 242  50 127 183  45  72  90 231 125 110 150 116  54 231  63 238 213 152  45 237  46  62 238 130  47 246 161  93]
[ 10 252 176 218 237 253 185 222 175  95  60  61 172 254 111 174 167  27 215  17 135 110 186 243  31  93  94 171 150  84  15 223]
[109 181 241  77 240 111  79 223   3 225 104 136 120 247 192  52  30 254  18 120  19 154 253 159 125 172 165 236 175 234 214 248]
[139 178 176 217 237 245 185  87 159  93  85  53 140 222 230 173 207  59 247  21 151  92 162 209  79  89 126 235 158  12 173 215]
|--- image end ---|
|--- image2-2 ---|.jpg
[ 65 125  31 231 176  78 103 180  44 232 107  72 247 119   9 114 148 119 125 106  73 144 217  47 229 190  37  16   8 115   3  56]
[ 26  94 182 189  61 255 184 103 191 234 218   3 236 190  55 237 239 247 255 129 164 217  19 220 189 118 223 131 134 124  53 159]
[170 184 224  26 235 249 176 198 187  93  52 189 172 220  86 142 143 123 243  17 150 111 250 241  31  81  93 251 214  12  79 223]
[214  64 198 247  46  10  76 128 225 178 163 146  67  75  21  91  34 213 125 235 104 197 143 200 146 234 199  20  37 241  96   0]
[ 43 187 224  90 111 221 240 221 235  93  52 173 168 220 214 188 175 187 247  85 151 106 254 241  79  89  81 235 223   6 223 255]
[173 253  93 127 248 143 102 185  84 250 117 108 243  81 129  49  30 122  70 106 225 248  89  61 110 139 101  48  88 187 202 153]
[205 168 148 243 173 248 125 151 191 151   6  16 237  35  74 207  99  71 236  24  50  92 255 225 206 243 222  65 166 196 141  72]
[114 143  97 140 218 194  79 183   3 164 156 171  33  39 192  84  78 246  45 200  88  10 237 191 120 166 173 252  55 162 180 104]
[216 172 190 240 168 173  85 151 178  31 166  24 183 183  64  91 167 179 125  24  58 111 178  51 219 203 116 120 224  64 135 107]
[109  99 164 165  45  14  79  56  67 236 150 205 211  41 211 134  28 196 125 111 205 112 197 136 204 120 237 148  14 191  88  81]
[224 172 189 117 205 237  85 143 115 191 164  24 178 183  64  59 137 222 104  24  58 110 242  51 203 159  85 121 192  72 198 170]
[220 237 251  70 146  78  79 164 113 160 166  24  91  55  64 119  48 222 124 250 121 216 185  46 251 169   5  68  34 177 231  40]
[ 42  48 178 208 233  85 144  79 139 253 180  61  14 159 102 159 141 153 215  17  30 107 178 208  27  89  92 255 194  12 142 215]
[173 122 125 113  44  95 209 184  77 254  54 252 223  29 211 175 135  80 221 126 229 244 109 180 206 219 117 245 110 189  79 241]
[ 43 154  35  25 125 245 161 119 206  77 220  36 168 188 182 228 200  42 186 141 151 171  54 213   7  61 154 202 159  12 253 253]
[ 90  57 246 188 127 190 120 230 175 168 254  35 140 190  39 208 238 253 255 209 132 217 129 236 159 255 155 195 167  37  41  75]
[ 34 179 234 160 176  43 149  87  34 237 158 189 134 173 194   0 143 159 205  21 158 251 193   2 250 213  60 247 204 204 159 219]
[193 253  59 251 176 206 119 190  62  83 106  80 247 247  32 112 181  91 123  88  35 156 155  55 237 191  31  76 152  80 163  58]
[236 180 189  99 173 109  65  25 115 251 167  24 214 117  72  59 145 148 120  56  59 100 251  18 205 155  81 116 194  75 198 114]
[141  96 149  33  48 107  97  10 118 241 162  16 147  48 193 191   2   4 104  56  41 244 245   8 204 146  21  20 234 240  67  36]
[ 13  28 190 241 164  63 189 215  84 255 126 176 159  61 146 171  15  86 183  28 176 248  37 128 207 223 118 132 198 252 141 249]
[112 149  15 206 220 199  70 237 132  64 234  74 114 246  36 112 216 246  58 226  25 139  24  61  57 166 133  88  25  42 244  26]
[ 56  13 190 117 181 238  85  39 224 143 238   8 183 179   0  50 136  54 108   8  24 169  80   8 227 255 112  17 224  72 198 170]
[  2 209 182 157 125 223 184  71  63  13 218   2 172 190  38 196 232 191 251 129   6 251 211 213 181  54 218   3  18  12 185 142]
[136  40 215  85 231 233 164  70 125 178 114  58 188 181 196 189  43 126  98   8  33 252 167 224  21 186  87  34 103 200  71 168]
[238 115 240 200 105 221  89  89 139 221 181  61 142 223  78 190 134  49 253  80 150 103 242 192 211  89   1 187 194 164 143 215]
[171 252 121 194 127 221 251 241  43 108 181 255  40 157 222 164 174 153 215 213 231  47 188 247 127  93 171 251  95 142 127 255]
[ 38 236  58 158 125 211 190 232  31  76 120   3 236 222  55 196 249 121 147 227  70 182  10 255  55  22 139 139  21  63  61 199]
[ 77  50 253  97 178 127  59  16  43 253  63 237 223  31 203 186 151  85 253  62 145 240 185  64  78 221  33 228 206 231  15 113]
[206 160 246 218 207 249 176  75 219  23  37  27  76 236 110 143 163  51 235  17  22 109 154 208  31  83  81 111 211  77 207  70]
[138 137  34 184  53 208 184 103 220  65 194  19 172 156  52 225 192  59 155  21 118 169  16 157 131 113 154  91  30  12 185 142]
[238 149 133 223 169 114  78 185  23 186 135 240 219 103 136 255  85 214 189 170 121  64 203 191 171 246 205 213 186 255 156  48]
[172 246 118  88  45 219  84 252 213 158 180  41  74 217 175 143 217 120 207  98 104 231  74 140  98 211 117 191  67 253 124 171]
[237 122 189  55 170 124  23 152 251 254 183 253 222 119 203 191  23  84 236 118 225  68 255  34 204 243 101 190 202 247   7 113]
[101  49 216  82 232 233 148  77 234 129  41 104 150 241  69 186 155 122  98  16  23  98 218   0  14 157  53 123 200 114 203 131]
[ 34  93  58 158 116 195 190 230  30   6 120   3 100 220  55  64 250  57  19 193  70 190  16 255 117  22 139 171  21  58 117 223]
[ 85 140 156 183 172 250  80 135 254 115 214  48 215 120 146 107 163 103 124  17 191 252 207  32 204 243 119  81 236 200 217   5]
[ 49  97  72 161  82  70 123  80  33 224 172 143  17 135  82  48 124 140  81 252  77 146 244   0  95 137 169 236  41 130  90 208]
[ 43 163  96  12 246  18 238 237  67   5 125 238   9 232 190 148  90 138   2 173 214  58 236 215  62  60 134 236 119 134 250 196]
[255 223 109  69 118  94 253  53  72 204  87 230  89  44 150 231  38 228 183 239 245 248 101 140 126 105 229 192 111 190 216 117]
[ 76 172 179  83 213  46 103 151 114 187 111  64 209  51  80 126  97  78  58 152 144 216 217  98  77 190 150  68 130  83 192  34]
[ 91 223  70   5  50  18 190 190  44 104 254 231  93  39 134 212  54 199 253 238 225 153   5 111 182 239  46 132  47 246 169  93]
[ 65 137 154 161 164 232 113 151 127  65  78   8 183 249  82 112 243 174  60  25 158  24 199  49 204 247  55 105 172 194 217  10]
[ 89 150 222 117 162 122 176  47 126  43 126 228 255  62 134 248 179   7 108  16  21 221  35   7 206 239 126 131 228  64 205  75]
[ 10 120 178 242 239 253 185 198 171  95  52  61 172 158 103 174 167  59 247  17 134 109 186 241  15  89  94 235 134  84  15 223]
[ 89 185 146  55 131 116  54 133  58 251 111   4 237 178  75 250 177  79 172  66   7  90 188  35 138 231 127  39 138 119 171 221]
[ 23 127 199 133 226  10 175 244  40 234  90 230  93  46 149 167  54  69 119 239 229 208  45 236  52  46 239 132  45 247 131 245]
[ 10 252 176 218 237 253 185 222 191  95  60  61 172 255 111 174 167  27 247  17 134 110 186 243  31  93  94 171 150  84 143 223]
[170 180 228  28  79 241 152 110 219 215   4 191  44 236 126 143 207 123 179   7 166 103 254 241  31  83  91  59  87  77  95 222]
[139 178 127 251 237 253 185  87 191  93 118 245 172 159 254 236 239  59 183  17 151 220  99 209  78  91 250 203 158 140 173 255]
|--- image end ---|
|--- image2-3 ---|.jpg
[ 65 253 157 247 180 206 103 183 124 162 106  64 247  55   0 114 144 118 120  74 113 216 209  46 237 190 119  16   8 242 131  40]
[173  52 193  69 212 111 103 218  86 226 107  82 211  49 153 164  89 204  18  58  41 180 125  30 109 142 133  36 255 251  80 160]
[ 42 184 224  26 251 249 177 199 187  93  52 189 172 220  86 140 143 123 211  17 150 107 250 243  31  87  29 251 215  76 207 223]
[228 164 189 118 136 109  85 153  50 191 165  24 215 119  73  59 145 214 104  58  56 102 251  18 203 203  85 124 192 113 198  34]
[110 184 242 210 237 252 184 215  59 127 180 189  12 189  86 191 143 223 247  21 183 122 250 224  95  91  94 239 207 196 255 255]
[252  68 159 228 137 102  87 136 177 190 167  25  87 247  41  91 113 212 237  98  40 199 187  10 211 227 229  29 162 113 100  98]
[ 84 160 157  63   8  15  64  41 166 176 163   8 247 227   8  83   1 100 104 106   8  65 219  29 201 163 101  20 160  34   2   2]
[ 42 141  65 217 211 209  36 231   7   1 104 162  32 135 160 228  74 186 131 128  91 154 100 255  46   4 152  99  55 140 164 184]
[129 190 159 253  50 167 185  51  30 235  82 116 180  55 128 104 135  63  55 128 177 220   1  95 204 174  58 192 140 128  33 185]
[178 243 102  69 118  27 239 253  83  36 119 238 105   8 190 165  62 220 134 236 242 253  45 223  62  72 165 228 111 158 222 189]
[111  60 255 247 109 126 123 216 187 239 182  28 255 255  87 254 255 255 253 222 169 243 251 234 223 255 215 178 143 247 118 243]
[228 173 153 116 248  79  85 175 114 187 172  24 151  49  64  51 145 222 108  56 122 122 249  30 255 139  37 125 224 104 198  42]
[123 239  18 188  25 157  20 111 223 188 168  77 174 232  34 148 137 171 206   5 110  11   2 223 184  86  27  63  90  28 139  15]
[ 80  48 155 244   8 205  81  67 162 177 166   8 183 151  64  58 160  60 108  16  10 105 178   1 209 161 112  57 224   0   7  42]
[ 92 241 155 234 168  76  87 156 166   9 171  64 215 211  72 114 150  85 124  90  91   1 155  49 249 229  39  92 128  19 131  35]
[140 175  16  59 177 169 118 143 191  19  40  25 239 195  72 152 147  10 108  24 114 108  74  51 174 215  21 125 210 210 139  10]
[ 75 178 246 222 127 221 249 255 255  93 244 175 236 255 254 246 239 187 255 149 135 107 254 213  95 123 255 251  31 132 239 255]
[247  34   8 160  13  29 210 200  75 190 181  31 130 200  95 136 216 204 206 119 142 103 202 144 146 217 169 191  81  47  90 135]
[150 148 157 191 154 226 159 175  22  83 139 179 244 119  40  67 119  83  59 131 115 200  91  55 233 162 255  84 180  64 165 114]
[ 49 158  99 255 118 163 239 243  86  66 216 230 113 203 177  96 127 170  22 142 171 191  60 255 112 174 163 128  61 202 112 248]
[  2 209 150 157 125 207 184  71  63  77 218   3 172 190  38  68 232 175 251 129   6 251 211 213 181  54 154   3  16  12 189 223]
[ 32 189  23 218 157 239   7 239 159  77 200   8 102 245  44 128 217 178 203  32  27 171 122  63 185  22  21  91 208  74 244 122]
[200  80 182 112  45  92 145  23 235 255 182  60 142 157  70 175 133  52 236  16 148 101 178 128 203 243  85  95 194  60 205 119]
[224 172 189 115 173 237  85 143 242  63 164  24 178  55  72  59 137  82 105  24  58 110 234  51 205 154 116 121 192  88 198 170]
[249 124 152 103   9  45  86 158 122 162 172  12 183  49  67 154 129  70 104  78  72  96 219  35 227 221  85  56  74 113  74  10]
[255 115 235 229 246  82 127 121  97 204 247 230  91 111 155 119 126 253 213 238 233 243 165 136 246 233 231 132  47 182 246 241]
[ 92  87  87 101  50  10  47  48  41 200 123 230  95 102 137 243  54 213 236 226 193 145 173  76 176 224 107 132  45 179  37  49]
[255 115 112 126 235 221  93  81 171 204 181 173 111 223 215 191 174 177 221 118 255 103 250 200 243 217  33 187 119 166 206 247]
[117  52 136 166 141  38  79 159   2 230 142  15  83 105  91  74  89 198 121 175 204  67 223  34 248  39 205  28 172 126 248  90]
[106 184 182 208 109 253 144 134 203 127 180  61 142 156  70 190 133  87 253  17 134 111 242 225  27  91  88 255 194  77  95  95]
[ 53 181  17 171 213 111 198 207  87  97 105  74  18 112  72 180 217 202  66  16  31  58 121  55 173 132   5 118 217  74 210 172]
[206 122 252  84  41 221 217  19 171 255  54  61 142 188 215 191 135  53 253  21 149 109 243 192 207 219 117 251 198 188  13 119]
[202 184 246 208  75 244 184   7 191  87   7  23 172 190 102 222 163  63 235 145  54  77 178 211  31 115  90 107 146   4 173  94]
[ 48  11 255 100  34 107  65  67 105 172 186   8   7  43   5  26 162 181 100  16   8 251  33  72 153 138 113  16 225  32  71  33]
[ 25 169 108 160  18  71  89 233  34 117 132 139  55  31  82  48  42 137  85 237  78  26  53  21 219 201 184 101  37 130  38 218]
[239  51  60 184 169 253 145  17 137 220 181 125 190 220 239 175 206  49 255  21 167 103 242 128 195 217  42 187  90  76  13 247]
[ 85 140 156 177 172 250 112 135 126 243 214  48 247  56 146 107 163 103 124  17 191 252 199  34 204 243 119  81 236 200 217   5]
[255 123 116 110 239  92  93 113  41 204 181 175  43  95 151 183 174 185 213 239 221  34 246 204 247 249 101 187 119 182 206 247]
[187 211 109 181 102  22 253 180  88 254  86 247 217 108 158 227 110  69 181 239 229 244 239 140 102 107 239 132  47 188  91 253]
[223 165   4  18 141 221 212 173 203 253 135  31 206 104 222 167 161  66 232 119 247 105 255 181 174  83  69 127 106  12 219  86]
[ 91 223  70   5  50  18 190 190  44 104 254 231  93  39 134 212  54 199 253 238 225 153   5  79 182 239  47 132  47 246 169  93]
[ 33 241 123  66 117 215  66 117 227 201 253  40  82 216 236  52 216 184  86 232 221 187 184  85  59 221 133 110  75 130 234 165]
[ 65 169 154 161 164 232 113 151 127  97  78   8 183 185  82 112 243 174  60  25 158  24 199  49 204 247  55 105 172 194 217  10]
[170 190 166 152 105 241 176  66 155  94 149 189  44 204 102 143 205  59 179 149 230  79 186 209  19  83 223 175 147 108  63 223]
[111   1 132 220 205 120  68  15 235 147 160  88 138 176  85 255 193 198 234  24  29 107 215 192  23 114 212  59 202 124 218   4]
[ 95 114 162  53 161 126 149 150 123 207 158 245 143 252 210 190 149 109 252   7 205 224 246 130 194 127 127 151 202 116 143  87]
[ 55 241 234 202 125 213 250 216  75 204 253  42   8 220 255  36 126 248 151 249 206  51 188 224  63  93 135 239 119 143 126 215]
[170 244 228  28  79 241 152 110 219 215   4 191  44 236 126 143 207 123 179   7 166 103 254 243  27  83  91  59  87  77  95 222]
[170  62 166 158 235 241 144  74 155 215   4 183  44 252 118 143 205 123 179 133 182  79 186 243  19  83 219  43 150  77  63 223]
[157 214 109  67 182 126 255 184 117 126 119 246  89 125 158 231  63 212 223 238 245 244 125 222 102 235 231 196  47 247 252 117]
|--- image end ---|
|--- image2-4 ---|.jpg
[205 168 148 179 171 152  57 151 186 151   6  16 253 227  74 207  39 103 253  24  19  76 139 241 204 243 255 229 134 196 137  41]
[205  45 149 117 168 110 101 191 242 186 162  24 215  51  65 123 129  86 104  42 105  84 217   0 237 170 117  20 192 112 195  40]
[122  48 186 184 109 253 248  74 175  63 181  27 142 158  70  26 239 153 255 145  30 103 210 208 223 215  90 123 195  76  47 215]
[ 68 102 213  97  86  11 238   4 126 163  34 218 213   1  81 154  51 101  74  57  34 244  13  74  60 134   7   0 229 243  65  40]
[ 89 253 217 229 242 110 126 183  50 225 106 236  31  55 200 176  55 223  84  24  19 216 153  55 255 165  37 228 168 210 131 185]
[192 164 156  51 136  40  53 143  58 183 170  25 150  35  72  27 161  87 105  16  50  92 203  98 221 130  86 125 128  80 135  10]
[ 47 160  64  11  77  61 232 200  79  49 241  94 202 200  92 174 217 136 210  63 159 118 222 208  30  88 131 126 223  15  90 132]
[ 42 141  65 217 211 209  38 231   7   1 104 162  33 135 164 228  74 186 131 192  91 154 100 191  44   4 152  99  55 140 164 188]
[232 172 189 120 205 237  81 151 178  23 164  24 183 183  64  59 201 186 121  24  58 110 242  51 219 235  84 121 224 200 198 106]
[229 107 158  22 200   5  68 236 202 186 161  77  66 224  79  27 200 228 106 102 108 103 202 104  48  16  69  62  72 123  74 132]
[219 219 255 239 118 220 251 116 239 200 222 230 189 159 150  96 110 237 127 205 193 185 167 237 254 253 174 192  47 138 113 249]
[ 65 253  27 231 144  78 103 180  60 128 106  64 247 119   8 112 176 118 120 106  97 153 153  47 225 174   7  16   8 115 131  40]
[  8  79  22 181 112 137 101 118 188  12  94  64 181 131 161  64  34  42  34  76  64 152   2  45 100 164  50 128  42 144  33 169]
[191 246 125 241  47 127 217 186  31 126 181 191 223  29 158 191 175 149 223  55 255 101 121 245 207 219 113 247 127 141  79 119]
[ 64  92 157 255   9 108  69  54 148  10 238  16 246 119  33 111 193 114 120   8  41  13 115  63 225 255  80  18  26 120  68  58]
[165 153  93  79 186 143 167 185 236 200  62 108 242 113 133  38   6 114 110 106 209 168  91  63 108 186 101  16  88 170  65 185]
[ 15  55 231   5 187 126 188   3 169 227  91 247 140 172 215 174 166  47 249 149 149 217 180 200   6 126  91 146 207 100 139 245]
[173  40 245  85 109 111 225  74  94 242  96  88 218  56  85 175  73  76 114   9  33 246 247 192   5  26  83  32 207 105  83 164]
[201 157 150 213 147 158  36  55 180 171  78  84 252  51   0 231  39 118 248 168 241 217  17 239 173 251  94   2  42  96 137  41]
[ 17 158  99 223 118 163 239 115  87  66 216 230 113 235 177 100 127 170  22 142 171 191  60 255 112 174 163 128  61 202 112 185]
[120 172  28 101  56  75  85  47  50 166 168   8 183  49  64  19 129 254  76   0 104 126 193  30 233 199 117  49  96  96 198  42]
[249 106 154  48 109 157 212 198 235 172 176  13 163 136  87  27 200 229  78  69 236 111 192  56 210 217 117  57  65  56  90 203]
[ 69  52 221 193 178  62  61  31 126 227  15 244 213  55 202 126  55  22  62  60 177 212 245  66 110 159  55 196 140 224 137  49]
[ 80 173 171 190  20 192  75 175  38   5  78   3 181 183 112  64 113 155  61 153  26 154 163  61 249 229 190  73 164   0 181 106]
[ 96 172 189 115 173 237  85 143 242  63 164  24 178  51  64  59 137  82 105  24  58 110 251  49 205 154 116 121 192  72 198 170]
[ 85 237  27 109 144  78  71 186 116   0 106   8 247 115   1 112 176 118 120 106 105 169 153  47 225 239   5  16  72 115   3  40]
[ 93  85  31 103 146  78 103 185 100 192 235  72  87 119   9 113 176 212  88 106 105 177  57  14 241 235   5   4 104  51 227  50]
[236 164 149  99 137  47  64   9 122 179 163  24 215  51  72 155  17  84 104  56  50 116 201   2 205 195  85 116 192  98 198  34]
[152  73 127 117  73 219 109  99 165 132 102   0 127 215 128  50  34 180 117 232  72 157  34  31 231 233  97   1  99 160 102 170]
[  3 188 153 211 176 237  61 159  58 123  23 124 148  55 200  42 135  95 125  24 147  92 251 115 173 150  63 230 136  80 131  57]
[  9 168 190 213  53 188 185 151 111 249  30  48 190  61 210 174 143  22 255  28 146 248 161 192  79 127 118 193 198 140  45 105]
[ 10 176  48 154 205 245 184  71 159  93 149  31 172 222 126 173 173 187 243 145 150 107 186 209  95  81 154 235 147  12 175 223]
[124 241 177 166  15  69 215 200  67 241 129  11  94 221  72  34 248 213 233  99  76  35 249 128 209 192   5  63  97  59  54  98]
[ 17 140  67 254 148 167 235 119  86  65 219 194 113 234 176  96 121 170  22 140 187 187  61 255 184 174 190 192 189 202 240 176]
[205 145  61 125 168  77  69  57 242 126  39  56 247 115 202 123   6  70 108 110 249  68 255  53 196 171 117  52  80 128 130  97]
[234 248 176 208 109 253 185 150 139 127  52  61 140 156  71 190 135 119 255  17 135 111 242 240  95  89  90 255 194  93  15 255]
[ 53 189  25  35 149 223 194 238  86  57 185 104  22  48 232 160 153  90  70 114  63 187  73  55 169 205  37 119 209  11 202 135]
[ 40 171 249  99 240 143 107 223  51  37 108 197 171 227 208  16  62 174   7 220 154 184 248  61 110 253  36  96 227 130 198 232]
[ 76 172 179  83 213  46 103 151 114 179 110  64 209  51  80 126 113  94  56 152 146 216 217  98  77 174 182  68 130  83 193  34]
[ 88 214 156 125  43  90  85  31 167  63 239  48 143 179 130 214  67  20 236   0  72  69 235   1 226 229 116 151  50 240 140  99]
[223 161   4  19 141 221 212 173 203 252 135  31 206 104 222 167 161   2 232 119 247 105 255 181 174  83  69 127  74  12 219  86]
[209 160 156 113 136 127 212 143 246  91 162  16 243 184  74 107 201 151 108 144 191 237 199   1 204 227 119  81 200  64 169  30]
[ 45 219  97 202 119 143 111 252  71 104  92  78 118 193 184 132  58  72  23 110 195  48  56 189  55  12  37 172 126 158 208 240]
[116 169 216  78  90 141  83 200 171   9 109   8 114 211 237 112 182 248  38  80  18  11 154  49  63 172   5 123 241 139  74  34]
[111  52 132  28 205  60  68  11 203 155 172  24 170 248  87 255 201 198 238   0  29  99 214 192  22 122 208  59 219 125 250   6]
[187 218 120 245  39  95 253 244  93 238 180 183  27  29 182 175 239 253 151 239 237 181 117 202 243 223 255 147 111 188 124 247]
[ 43 170 226  24 111 177 186 202 219  79 116 191  40 200 246 156 223 171 134  21 150 110 198 243  30  95  17 235 215 204 234 207]
[206 240 180 240 237  84 189 223 171  95  21 183 140 222  94 175 167  91 255 147 246  71 186 211  95  91 223 239 134  84 175 215]
[170 180 228  28  79 241 152 110 219 215   4 159  44 236 126 143 207 123 179   7 166 103 254 241  31  83  91  59  87  77  95 222]
[143  27 127 249 102 244 249  83 143  93 119 246 157 159 246 111 238 185 191 157 149 212 119 192  86 249 234 204  63 172 245 241]
|--- image end ---|
|--- image3-0 ---|.jpg
[229  48 189  99 169 111  65  24 106 178 165  24 215 113  73  59 145  84 104  58  57 100 249  16 205 219  65 116 192 107  70  34]
[180 213 125  79 114  94 103 184 113 184 119 120 115 119 140  55  62 212  68 234 233 246 249  47 111 235 101  64 107 163  66 181]
[114  44 150  54 137 236  52  70 251  31 163  25 174 244  75 223 161 247 232   3  60 103 154  97 145 114  88  59 192 117 143  78]
[124 252 240  71 245  14 199 191  97 174  62  44 122 121  29  52  57 254  69 106 200 176 248 170 127 239  37  52 227 251 214 235]
[193 252 188  53 108 159 241  23 254 255  34  29 158 184 118  59 133  37 122  21 244 124 244  66  79  27  87  50 200 104 201  79]
[164  52 253  85 196 111 245  23 249 191  63  24 210  61  69  43 141  86  96  40 176 244 115  66  79 154 117  22 193 249 198 163]
[188 230 248  98 148  15  86 248  83 182 181  95  67  73  88  25  25 200   5 126 250 102 216  22 218 203  37 125 111 171 218   2]
[249 188 206 188 222  98 207 255  82 235 242 123 113 115  18  41 121 231 118 161  57 255  73 223 248 167 255  20 237  96 186 154]
[131 251 110 147 162 209  60 244  61 254  85  38 165  18 215  45 167 107  86 222 199 220  47 229  14  91 222 195   4 151 175 237]
[ 90 155  63 245  50 198  57  49 189 141  86 229 253 215 160  81 230  53 191 192  81 217  49 204 225 243 106 194  32 128 165 113]
[169 241  46 186 189 205 209 228 158  88 133  25 252 217  58  65 217  99  91  85 127  77  26 247 251  89 158 127  26  30 152  90]
[ 72  24 151 252  31 221  20   7 207 224 234 104 190 188  37 226 134 125 234   0  73  43 178 186 187 245   5  59 210 104  13  43]
[120 181  28  58 137 111  84 175 163  55 173  25 223  23  10  27 129 151 253  34  62  65 219  21 211 243  81 119 162  81 142  82]
[ 77  17 151 239 170  46  61  25  14 210  75 230 220 119  41 110  54 117  59  34 145 208  59 200 197 182  75   6 184 251   1  49]
